{"learner":{"attributes":{"scikit_learn":"{\"_estimator_type\": \"classifier\"}"},"feature_names":[],"feature_types":[],"gradient_booster":{"model":{"gbtree_model_param":{"num_parallel_tree":"1","num_trees":"800"},"iteration_indptr":[0,8,16,24,32,40,48,56,64,72,80,88,96,104,112,120,128,136,144,152,160,168,176,184,192,200,208,216,224,232,240,248,256,264,272,280,288,296,304,312,320,328,336,344,352,360,368,376,384,392,400,408,416,424,432,440,448,456,464,472,480,488,496,504,512,520,528,536,544,552,560,568,576,584,592,600,608,616,624,632,640,648,656,664,672,680,688,696,704,712,720,728,736,744,752,760,768,776,784,792,800],"tree_info":[0,1,2,3,4,5,6,7,0,1,2,3,4,5,6,7,0,1,2,3,4,5,6,7,0,1,2,3,4,5,6,7,0,1,2,3,4,5,6,7,0,1,2,3,4,5,6,7,0,1,2,3,4,5,6,7,0,1,2,3,4,5,6,7,0,1,2,3,4,5,6,7,0,1,2,3,4,5,6,7,0,1,2,3,4,5,6,7,0,1,2,3,4,5,6,7,0,1,2,3,4,5,6,7,0,1,2,3,4,5,6,7,0,1,2,3,4,5,6,7,0,1,2,3,4,5,6,7,0,1,2,3,4,5,6,7,0,1,2,3,4,5,6,7,0,1,2,3,4,5,6,7,0,1,2,3,4,5,6,7,0,1,2,3,4,5,6,7,0,1,2,3,4,5,6,7,0,1,2,3,4,5,6,7,0,1,2,3,4,5,6,7,0,1,2,3,4,5,6,7,0,1,2,3,4,5,6,7,0,1,2,3,4,5,6,7,0,1,2,3,4,5,6,7,0,1,2,3,4,5,6,7,0,1,2,3,4,5,6,7,0,1,2,3,4,5,6,7,0,1,2,3,4,5,6,7,0,1,2,3,4,5,6,7,0,1,2,3,4,5,6,7,0,1,2,3,4,5,6,7,0,1,2,3,4,5,6,7,0,1,2,3,4,5,6,7,0,1,2,3,4,5,6,7,0,1,2,3,4,5,6,7,0,1,2,3,4,5,6,7,0,1,2,3,4,5,6,7,0,1,2,3,4,5,6,7,0,1,2,3,4,5,6,7,0,1,2,3,4,5,6,7,0,1,2,3,4,5,6,7,0,1,2,3,4,5,6,7,0,1,2,3,4,5,6,7,0,1,2,3,4,5,6,7,0,1,2,3,4,5,6,7,0,1,2,3,4,5,6,7,0,1,2,3,4,5,6,7,0,1,2,3,4,5,6,7,0,1,2,3,4,5,6,7,0,1,2,3,4,5,6,7,0,1,2,3,4,5,6,7,0,1,2,3,4,5,6,7,0,1,2,3,4,5,6,7,0,1,2,3,4,5,6,7,0,1,2,3,4,5,6,7,0,1,2,3,4,5,6,7,0,1,2,3,4,5,6,7,0,1,2,3,4,5,6,7,0,1,2,3,4,5,6,7,0,1,2,3,4,5,6,7,0,1,2,3,4,5,6,7,0,1,2,3,4,5,6,7,0,1,2,3,4,5,6,7,0,1,2,3,4,5,6,7,0,1,2,3,4,5,6,7,0,1,2,3,4,5,6,7,0,1,2,3,4,5,6,7,0,1,2,3,4,5,6,7,0,1,2,3,4,5,6,7,0,1,2,3,4,5,6,7,0,1,2,3,4,5,6,7,0,1,2,3,4,5,6,7,0,1,2,3,4,5,6,7,0,1,2,3,4,5,6,7,0,1,2,3,4,5,6,7,0,1,2,3,4,5,6,7,0,1,2,3,4,5,6,7,0,1,2,3,4,5,6,7,0,1,2,3,4,5,6,7,0,1,2,3,4,5,6,7,0,1,2,3,4,5,6,7,0,1,2,3,4,5,6,7,0,1,2,3,4,5,6,7,0,1,2,3,4,5,6,7,0,1,2,3,4,5,6,7,0,1,2,3,4,5,6,7,0,1,2,3,4,5,6,7,0,1,2,3,4,5,6,7,0,1,2,3,4,5,6,7,0,1,2,3,4,5,6,7,0,1,2,3,4,5,6,7,0,1,2,3,4,5,6,7,0,1,2,3,4,5,6,7,0,1,2,3,4,5,6,7,0,1,2,3,4,5,6,7,0,1,2,3,4,5,6,7],"trees":[{"base_weights":[-0E0,-3.52012E-1,1.1213139E0,-3.940185E-1,2.7670753E0,5.701254E-1,1.9009758E0,9.9960335E-2,-5.4891205E-1,3.1181102E0,-4.2105266E-3,1.9033937E-1,1.4601018E0,7.730106E-1,2.963015E0,1.5487465E0,-1.1066184E-2,2.074074E-1,-5.5477387E-1,9.72973E-2,3.2446352E-1,1.2345679E0,5.2493438E-2,1.1610256E0,2.6849315E0,3.8989168E-1,2.290976E0,1.9613197E0,3.3574297E0,8.5444236E-1,2.9864255E-1,2.5038376E-1,-4.4070646E-1,-4.8598133E-2,1.8181819E-1,4.1379312E-1,-5.5775285E-1,1.776675E0,3.032491E-1,2.2769232E-1,-7.415036E-3,8.8968396E-1,2.5311475E0,8E-1,3.1529412E-1,1.7009709E0,-6.9244085E-3,2.9473683E-2,2.5333333E0,2.2477183E0,-0E0,2.3283582E0,3.655914E0,1.1803279E-2,1.6250001E-1,1.9016394E-1,1.588551E-2,-4.931507E-2,1.6421053E-1,1.1343284E-1,-3.4567904E-2,-1.0471204E-2,-5.6269504E-2,2.0235296E-1,2.9473683E-2,-4.5033112E-2,9.620254E-2,-5.1142317E-3,1.7931035E-1,4.5065504E-2,1.7304964E-1,1.7910449E-2,2.8148147E-1,-3.7894737E-2,2.0895521E-1,2.1268295E-1,2.9197081E-3,-1.916313E-2,2.6206896E-1,2.737819E-1,4.4444446E-2,2.6330099E-1,1.2957747E-1,-4.0366974E-2,6.5671645E-2,2.7056178E-1,3.5772357E-2,1.1343284E-1,3.6916724E-1],"categories":[],"categories_nodes":[],"categories_segments":[],"categories_sizes":[],"default_left":[0,0,0,0,0,0,0,0,0,0,0,0,0,0,0,0,0,0,0,0,0,0,0,0,0,0,0,0,0,0,0,0,0,0,0,0,0,0,0,0,0,0,0,0,0,0,0,0,0,0,0,0,0,0,0,0,0,0,0,0,0,0,0,0,0,0,0,0,0,0,0,0,0,0,0,0,0,0,0,0,0,0,0,0,0,0,0,0,0],"id":0,"left_children":[1,3,5,7,9,11,13,15,17,19,-1,21,23,25,27,29,31,33,35,-1,-1,37,39,41,43,45,47,49,51,53,-1,55,57,-1,-1,59,61,63,65,-1,67,69,71,73,-1,75,77,-1,79,81,83,85,87,-1,-1,-1,-1,-1,-1,-1,-1,-1,-1,-1,-1,-1,-1,-1,-1,-1,-1,-1,-1,-1,-1,-1,-1,-1,-1,-1,-1,-1,-1,-1,-1,-1,-1,-1,-1],"loss_changes":[6.9154236E2,1.7579582E2,1.7880298E2,1.0079048E2,1.7727371E1,8.309206E1,2.0487885E2,5.0706158E1,4.5592957E0,1.1517487E0,0E0,2.4985714E1,2.3852844E1,4.866669E1,2.8466309E1,1.9845081E1,3.3100098E1,1.0307385E1,3.1017456E0,0E0,0E0,9.684933E0,2.0643372E1,2.0402885E1,9.552292E0,3.60396E1,7.4628754E0,1.5429726E1,1.06085205E1,9.188789E0,0E0,2.7389088E1,1.2985693E1,0E0,0E0,2.3758094E0,2.1629944E0,4.0106773E0,4.730545E0,0E0,1.2036791E1,1.8565441E1,5.8550797E0,6.9681077E0,0E0,1.1395668E1,2.6786314E1,0E0,5.190407E0,5.379364E0,1.4580309E0,1.1484772E1,5.2490234E-3,0E0,0E0,0E0,0E0,0E0,0E0,0E0,0E0,0E0,0E0,0E0,0E0,0E0,0E0,0E0,0E0,0E0,0E0,0E0,0E0,0E0,0E0,0E0,0E0,0E0,0E0,0E0,0E0,0E0,0E0,0E0,0E0,0E0,0E0,0E0,0E0],"parents":[2147483647,0,0,1,1,2,2,3,3,4,4,5,5,6,6,7,7,8,8,9,9,11,11,12,12,13,13,14,14,15,15,16,16,17,17,18,18,21,21,22,22,23,23,24,24,25,25,26,26,27,27,28,28,29,29,31,31,32,32,35,35,36,36,37,37,38,38,40,40,41,41,42,42,43,43,45,45,46,46,48,48,49,49,50,50,51,51,52,52],"right_children":[2,4,6,8,10,12,14,16,18,20,-1,22,24,26,28,30,32,34,36,-1,-1,38,40,42,44,46,48,50,52,54,-1,56,58,-1,-1,60,62,64,66,-1,68,70,72,74,-1,76,78,-1,80,82,84,86,88,-1,-1,-1,-1,-1,-1,-1,-1,-1,-1,-1,-1,-1,-1,-1,-1,-1,-1,-1,-1,-1,-1,-1,-1,-1,-1,-1,-1,-1,-1,-1,-1,-1,-1,-1,-1],"split_conditions":[5.154998E4,2.0326874E0,1.5579097E4,3.0516787E1,1.5698273E1,1.0593705E3,7.5815E4,1.6602052E2,5.2325684E2,6.580585E-1,-4.2105266E-3,1.0639638E2,7.0697003E2,8.90554E0,2.095481E4,4.6043506E-1,4.053551E4,9.459467E-1,9.765021E1,9.72973E-2,3.2446352E-1,1.22657945E5,1.5621549E1,6.393749E-1,7.127715E4,9.0383264E2,3.772732E1,1.4482368E1,9.130738E4,7.900355E0,2.9864255E-1,9.379126E-2,1.1583236E0,-4.8598133E-2,1.8181819E-1,3.8600098E2,4.2810818E1,1.6063738E1,1.1849635E1,2.2769232E-1,5.860612E0,4.353811E2,2.130154E0,5.5679655E0,3.1529412E-1,2.684884E1,5.773799E-1,2.9473683E-2,3.309344E1,2.4379402E1,6.9397897E-1,3.0078186E1,3.7884547E4,1.1803279E-2,1.6250001E-1,1.9016394E-1,1.588551E-2,-4.931507E-2,1.6421053E-1,1.1343284E-1,-3.4567904E-2,-1.0471204E-2,-5.6269504E-2,2.0235296E-1,2.9473683E-2,-4.5033112E-2,9.620254E-2,-5.1142317E-3,1.7931035E-1,4.5065504E-2,1.7304964E-1,1.7910449E-2,2.8148147E-1,-3.7894737E-2,2.0895521E-1,2.1268295E-1,2.9197081E-3,-1.916313E-2,2.6206896E-1,2.737819E-1,4.4444446E-2,2.6330099E-1,1.2957747E-1,-4.0366974E-2,6.5671645E-2,2.7056178E-1,3.5772357E-2,1.1343284E-1,3.6916724E-1],"split_indices":[8,5,13,12,0,11,8,9,4,14,0,13,6,0,13,14,13,18,9,0,0,8,7,14,8,11,10,0,8,0,0,14,5,0,0,6,6,0,12,0,5,7,12,0,0,12,14,0,12,17,5,12,9,0,0,0,0,0,0,0,0,0,0,0,0,0,0,0,0,0,0,0,0,0,0,0,0,0,0,0,0,0,0,0,0,0,0,0,0],"split_type":[0,0,0,0,0,0,0,0,0,0,0,0,0,0,0,0,0,0,0,0,0,0,0,0,0,0,0,0,0,0,0,0,0,0,0,0,0,0,0,0,0,0,0,0,0,0,0,0,0,0,0,0,0,0,0,0,0,0,0,0,0,0,0,0,0,0,0,0,0,0,0,0,0,0,0,0,0,0,0,0,0,0,0,0,0,0,0,0,0],"sum_hessian":[1.75E3,1.3324062E3,4.1759375E2,1.3155625E3,1.684375E1,2.4565625E2,1.719375E2,3.14125E2,1.0014375E3,1.4875E1,1.96875E0,1.7303125E2,7.2625E1,8.421875E1,8.771875E1,2.14375E1,2.926875E2,7.4375E0,9.94E2,1.3125E0,1.35625E1,1.925E1,1.5378125E2,5.99375E1,1.26875E1,6.825E1,1.596875E1,2.646875E1,6.125E1,1.553125E1,5.90625E0,1.8221875E2,1.1046875E2,5.6875E0,1.75E0,2.625E0,9.91375E2,1.159375E1,7.65625E0,3.0625E0,1.5071875E2,5.140625E1,8.53125E0,3.0625E0,9.625E0,1.509375E1,5.315625E1,1.96875E0,1.4E1,2.296875E1,3.5E0,1.575E1,4.55E1,8.53125E0,7E0,8.53125E0,1.736875E2,1.085E2,1.96875E0,1.09375E0,1.53125E0,1.09375E1,9.804375E2,9.625E0,1.96875E0,3.71875E0,3.9375E0,1.4809375E2,2.625E0,3.478125E1,1.6625E1,1.09375E0,7.4375E0,1.96875E0,1.09375E0,1.18125E1,3.28125E0,5.053125E1,2.625E0,1.246875E1,1.53125E0,1.509375E1,7.875E0,2.40625E0,1.09375E0,1.290625E1,2.84375E0,1.09375E0,4.440625E1],"tree_param":{"num_deleted":"0","num_feature":"20","num_nodes":"89","size_leaf_vector":"1"}},{"base_weights":[-0E0,-5.483879E-1,1.7114296E0,-5.633696E-1,7.067961E-1,3.7729208E0,-5.006828E-1,-5.664114E-1,9.68421E-2,-4.0655738E-1,2.0165288E0,3.9479752E0,-4.1025642E-1,-5.4899555E-1,2.7450982E-1,-5.6869817E-1,7.272728E-2,-5.0370373E-2,1.7910449E-2,2.9273745E-1,-3.7894737E-2,3.9666865E0,5.405405E-2,1.7910449E-2,-5.0541516E-2,1.1343284E-1,-5.636756E-1,-5.7022095E-2,-2.4096386E-1,3.97608E-1,1.1343284E-1,-5.6859095E-2,1.0810811E-2,-4.8598133E-2,6.5671645E-2],"categories":[],"categories_nodes":[],"categories_segments":[],"categories_sizes":[],"default_left":[0,0,0,0,0,0,0,0,0,0,0,0,0,0,0,0,0,0,0,0,0,0,0,0,0,0,0,0,0,0,0,0,0,0,0],"id":1,"left_children":[1,3,5,7,9,11,13,15,-1,17,19,21,23,25,-1,27,-1,-1,-1,-1,-1,29,-1,-1,-1,-1,31,-1,33,-1,-1,-1,-1,-1,-1],"loss_changes":[1.6442996E3,2.5349213E1,1.9407079E3,6.6605225E0,2.428767E1,1.6285938E2,3.3805576E1,4.2884827E0,0E0,6.324949E-1,1.7610003E1,1.133667E1,6.3732994E-1,5.6750946E0,0E0,5.154114E-1,0E0,0E0,0E0,0E0,0E0,1.0805664E0,0E0,0E0,0E0,0E0,7.307434E-1,0E0,2.030617E0,0E0,0E0,0E0,0E0,0E0,0E0],"parents":[2147483647,0,0,1,1,2,2,3,3,4,4,5,5,6,6,7,7,9,9,10,10,11,11,12,12,13,13,15,15,21,21,26,26,28,28],"right_children":[2,4,6,8,10,12,14,16,-1,18,20,22,24,26,-1,28,-1,-1,-1,-1,-1,30,-1,-1,-1,-1,32,-1,34,-1,-1,-1,-1,-1,-1],"split_conditions":[1.4040144E5,1.0569882E3,1.5059964E2,4.207167E6,3.0110016E2,1.1179035E6,5.998038E3,1.112707E2,9.68421E-2,9.008112E4,1.6849157E-1,8.340938E3,1.6041238E7,3.1890982E2,2.7450982E-1,9.7576215E2,7.272728E-2,-5.0370373E-2,1.7910449E-2,2.9273745E-1,-3.7894737E-2,2.5769266E-1,5.405405E-2,1.7910449E-2,-5.0541516E-2,1.1343284E-1,7.7954784E-2,-5.7022095E-2,1.33039255E1,3.97608E-1,1.1343284E-1,-5.6859095E-2,1.0810811E-2,-4.8598133E-2,6.5671645E-2],"split_indices":[13,6,12,4,7,13,8,12,0,13,5,2,4,10,0,6,0,0,0,0,0,5,0,0,0,0,14,0,0,0,0,0,0,0,0],"split_type":[0,0,0,0,0,0,0,0,0,0,0,0,0,0,0,0,0,0,0,0,0,0,0,0,0,0,0,0,0,0,0,0,0,0,0],"sum_hessian":[1.75E3,1.3258438E3,4.2415625E2,1.31075E3,1.509375E1,2.191875E2,2.0496875E2,1.3087812E3,1.96875E0,8.53125E0,6.5625E0,2.104375E2,8.75E0,2.0278125E2,2.1875E0,1.3070312E3,1.75E0,7.4375E0,1.09375E0,4.59375E0,1.96875E0,2.09125E2,1.3125E0,1.09375E0,7.65625E0,1.09375E0,2.016875E2,1.30025E3,6.78125E0,2.0803125E2,1.09375E0,2.00375E2,1.3125E0,5.6875E0,1.09375E0],"tree_param":{"num_deleted":"0","num_feature":"20","num_nodes":"35","size_leaf_vector":"1"}},{"base_weights":[-0E0,-5.709935E-2,1.7092385E0,3.2553864E0,1.8736812E-1,3.4636872E0,6.2545455E-1,3.4952682E-1,-1.358537E-1,3.686796E0,2.2205467E0,-8.3526686E-2,2.5165563E0,-2.128992E-1,3.1523177E-1,5.405405E-2,3.7081704E0,3.5811517E-1,1.3895922E0,8.780488E-1,-4.2352942E-1,2.8965518E-1,6.5671645E-2,-3.0247718E-1,1.7464789E0,3.269488E-1,3.8935992E-1,7.334594E-2,2.8037384E-1,1.4545456E-1,-2.9850746E-2,1.7910449E-2,-5.114754E-2,1.6421053E-1,-3.313025E-2,2.7450982E-1,1.0093458E-1],"categories":[],"categories_nodes":[],"categories_segments":[],"categories_sizes":[],"default_left":[0,0,0,0,0,0,0,0,0,0,0,0,0,0,0,0,0,0,0,0,0,0,0,0,0,0,0,0,0,0,0,0,0,0,0,0,0],"id":2,"left_children":[1,-1,3,5,7,9,11,-1,13,15,17,19,21,23,-1,-1,25,-1,27,29,31,-1,-1,33,35,-1,-1,-1,-1,-1,-1,-1,-1,-1,-1,-1,-1],"loss_changes":[1.7098889E3,0E0,1.0317115E3,1.1701807E2,2.3800108E2,4.7665527E1,2.3254436E1,0E0,5.218598E1,9.375732E0,3.2510147E1,4.7753296E0,1.4326725E0,3.556588E1,0E0,0E0,9.2822266E-1,0E0,1.8559635E1,3.0413346E0,6.5472436E-1,0E0,0E0,1.1292231E1,3.762268E0,0E0,0E0,0E0,0E0,0E0,0E0,0E0,0E0,0E0,0E0,0E0,0E0],"parents":[2147483647,0,0,2,2,3,3,4,4,5,5,6,6,8,8,9,9,10,10,11,11,12,12,13,13,16,16,18,18,19,19,20,20,23,23,24,24],"right_children":[2,-1,4,6,8,10,12,-1,14,16,18,20,22,24,-1,-1,26,-1,28,30,32,-1,-1,34,36,-1,-1,-1,-1,-1,-1,-1,-1,-1,-1,-1,-1],"split_conditions":[6.977309E0,-5.709935E-2,6.925325E1,2.421034E2,1.5273758E4,4.623167E1,5.9260906E1,3.4952682E-1,8.141325E1,5.8814716E2,1.6055054E4,7.5919896E-1,4.18374E1,2.0372457E4,3.1523177E-1,5.405405E-2,5.6171253E1,3.5811517E-1,1.679824E4,4.0164364E1,1.688247E4,2.8965518E-1,6.5671645E-2,1.5506547E3,9.1734024E1,3.269488E-1,3.8935992E-1,7.334594E-2,2.8037384E-1,1.4545456E-1,-2.9850746E-2,1.7910449E-2,-5.114754E-2,1.6421053E-1,-3.313025E-2,2.7450982E-1,1.0093458E-1],"split_indices":[19,0,10,0,8,10,7,0,12,4,8,5,10,13,0,0,7,0,13,7,8,0,0,13,10,0,0,0,0,0,0,0,0,0,0,0,0],"split_type":[0,0,0,0,0,0,0,0,0,0,0,0,0,0,0,0,0,0,0,0,0,0,0,0,0,0,0,0,0,0,0,0,0,0,0,0,0],"sum_hessian":[1.75E3,1.3122812E3,4.3771875E2,2.165625E2,2.2115625E2,2.00375E2,1.61875E1,1.88125E1,2.0234375E2,1.6821875E2,3.215625E1,1.246875E1,3.71875E0,1.98625E2,3.71875E0,1.3125E0,1.6690625E2,1.09375E1,2.121875E1,2.84375E0,9.625E0,2.625E0,1.09375E0,1.9075E2,7.875E0,5.5125E1,1.1178125E2,1.553125E1,5.6875E0,1.75E0,1.09375E0,1.09375E0,8.53125E0,1.96875E0,1.8878125E2,2.1875E0,5.6875E0],"tree_param":{"num_deleted":"0","num_feature":"20","num_nodes":"37","size_leaf_vector":"1"}},{"base_weights":[-0E0,6.6755176E-1,-5.6137127E-1,9.279141E-1,-4.7383842E-1,-3.3958104E-1,-5.6756485E-2,1.2555058E0,-4.0473315E-1,-4.92895E-1,6.315789E-2,2.1052632E-1,-5.007032E-1,4.6077737E-1,1.6561517E0,-4.6269405E-1,9.6089387E-1,-8.097166E-2,-5.3703266E-1,-3.0107528E-1,1.4054054E-1,-2.0437956E-1,-5.412541E-2,-3.5649124E-1,7.302554E-1,1.8205405E0,-9.756097E-2,3.4834835E-1,-5.3181696E-1,1.6513761E0,-7.8431375E-2,-3.062645E-1,9.68421E-2,-4.2105266E-3,-5.4415274E-1,1.7910449E-2,-4.5033112E-2,1.7910449E-2,-3.9215688E-2,9.72973E-2,-4.1937817E-2,1.2126388E-1,1.4103219E-2,2.1928608E-1,7.632457E-2,-3.0922694E-2,7.102804E-2,-2.212766E-2,1.2923078E-1,-1.5884478E-2,-5.5684455E-2,2.2702704E-1,1.7910449E-2,-2.9850746E-2,1.7910449E-2,-4.4444446E-2,6.5671645E-2,-1.6260162E-2,-5.51354E-2],"categories":[],"categories_nodes":[],"categories_segments":[],"categories_sizes":[],"default_left":[0,0,0,0,0,0,0,0,0,0,0,0,0,0,0,0,0,0,0,0,0,0,0,0,0,0,0,0,0,0,0,0,0,0,0,0,0,0,0,0,0,0,0,0,0,0,0,0,0,0,0,0,0,0,0,0,0,0,0],"id":3,"left_children":[1,3,5,7,9,11,-1,13,15,17,-1,19,21,23,25,27,29,31,33,35,-1,37,-1,39,41,43,45,47,49,51,53,55,-1,-1,57,-1,-1,-1,-1,-1,-1,-1,-1,-1,-1,-1,-1,-1,-1,-1,-1,-1,-1,-1,-1,-1,-1,-1,-1],"loss_changes":[6.565521E2,2.3827258E2,1.1145325E0,2.8514795E2,3.456646E0,2.6176457E0,0E0,1.6595154E2,1.0687487E1,2.6354218E0,0E0,4.77866E0,1.5636349E-1,3.9214573E1,1.0042175E2,7.1824493E0,4.143794E0,3.946337E0,4.4543839E-1,4.9723613E-1,0E0,3.7852818E-1,0E0,4.13112E0,3.772946E1,1.2349548E2,5.4776573E0,5.881427E0,9.888153E-1,2.697092E0,2.341235E-1,2.0840883E0,0E0,0E0,2.7012253E-1,0E0,0E0,0E0,0E0,0E0,0E0,0E0,0E0,0E0,0E0,0E0,0E0,0E0,0E0,0E0,0E0,0E0,0E0,0E0,0E0,0E0,0E0,0E0,0E0],"parents":[2147483647,0,0,1,1,2,2,3,3,4,4,5,5,7,7,8,8,9,9,11,11,12,12,13,13,14,14,15,15,16,16,17,17,18,18,19,19,21,21,23,23,24,24,25,25,26,26,27,27,28,28,29,29,30,30,31,31,34,34],"right_children":[2,4,6,8,10,12,-1,14,16,18,-1,20,22,24,26,28,30,32,34,36,-1,38,-1,40,42,44,46,48,50,52,54,56,-1,-1,58,-1,-1,-1,-1,-1,-1,-1,-1,-1,-1,-1,-1,-1,-1,-1,-1,-1,-1,-1,-1,-1,-1,-1,-1],"split_conditions":[1.1551881E1,8.5903734E4,1.2565102E1,6.835468E4,3.0467178E5,5.7489057E0,-5.6756485E-2,9.503385E0,4.5750892E-1,9.130738E4,6.315789E-2,4.0323788E2,3.876167E1,7.9354175E2,1.2600822E0,1.086706E3,7.910505E4,2.0089846E4,2.14963E1,2.387111E3,1.4054054E-1,3.0758238E1,-5.412541E-2,9.686999E1,3.979562E2,1.4132992E3,3.0078186E1,1.16573266E5,4.13926E2,1.2819038E3,3.405929E0,2.5650747E1,9.68421E-2,-4.2105266E-3,3.6493438E4,1.7910449E-2,-4.5033112E-2,1.7910449E-2,-3.9215688E-2,9.72973E-2,-4.1937817E-2,1.2126388E-1,1.4103219E-2,2.1928608E-1,7.632457E-2,-3.0922694E-2,7.102804E-2,-2.212766E-2,1.2923078E-1,-1.5884478E-2,-5.5684455E-2,2.2702704E-1,1.7910449E-2,-2.9850746E-2,1.7910449E-2,-4.4444446E-2,6.5671645E-2,-1.6260162E-2,-5.51354E-2],"split_indices":[0,8,0,13,4,19,0,1,14,8,0,7,10,11,5,11,13,13,17,3,0,1,0,15,7,11,12,3,6,11,0,17,0,0,9,0,0,0,0,0,0,0,0,0,0,0,0,0,0,0,0,0,0,0,0,0,0,0,0],"split_type":[0,0,0,0,0,0,0,0,0,0,0,0,0,0,0,0,0,0,0,0,0,0,0,0,0,0,0,0,0,0,0,0,0,0,0,0,0,0,0,0,0,0,0,0,0,0,0,0,0,0,0,0,0,0,0,0,0,0,0],"sum_hessian":[1.75E3,7.993125E2,9.506875E2,6.51E2,1.483125E2,2.734375E1,9.2334375E2,5.2259375E2,1.2840625E2,1.4634375E2,1.96875E0,6.125E0,2.121875E1,1.75875E2,3.4671875E2,1.238125E2,4.59375E0,1.44375E1,1.3190625E2,4.8125E0,1.3125E0,3.28125E0,1.79375E1,4.353125E1,1.3234375E2,3.1696875E2,2.975E1,9.40625E0,1.1440625E2,2.40625E0,2.1875E0,1.246875E1,1.96875E0,1.96875E0,1.299375E2,1.09375E0,3.71875E0,1.09375E0,2.1875E0,1.3125E0,4.221875E1,7.21875E1,6.015625E1,2.33625E2,8.334375E1,2.40625E1,5.6875E0,6.34375E0,3.0625E0,7.65625E0,1.0675E2,1.3125E0,1.09375E0,1.09375E0,1.09375E0,1.1375E1,1.09375E0,2.84375E0,1.2709375E2],"tree_param":{"num_deleted":"0","num_feature":"20","num_nodes":"59","size_leaf_vector":"1"}},{"base_weights":[-0E0,1.0238738E0,-5.361452E-1,5.0333357E-1,2.4858444E0,-1.6543764E-1,-5.6993682E-2,-2.1122966E-2,1.4730108E0,2.8469148E0,5.591398E-1,-3.011344E-1,1.4876033E0,-2.795236E-1,7.480786E-1,2.053388E0,-5.5536028E-2,3.0882502E0,-5.1282056E-2,1.2534931E0,-4.347826E-1,-5.009634E-1,1.8959537E-1,2.177215E0,1.3793103E-1,-2.1223122E-2,-5.473684E-1,1.4418604E0,-2.3246492E-1,1.3400844E0,3.0962772E0,3.2374902E0,9.049774E-2,-1.1173184E-1,1.8305085E0,-5.1651653E-2,1.7910449E-2,-5.304088E-1,2.3529412E-1,4.1255605E-1,-4.9122807E-2,1.7910449E-2,2.699187E-1,6.5671645E-2,-3.4567904E-2,4.7244098E-2,-3.3212997E-2,-5.565731E-2,1.7910449E-2,1.7495713E-1,-2.3140496E-2,-3.5306334E-2,1.6119403E-1,1.7445682E-1,-2.2524273E-2,3.197889E-1,-3.2432433E-2,1.364706E-1,3.391179E-1,-4.6060607E-2,1.0909092E-1,-4.4444446E-2,6.5671645E-2,-3.2432433E-2,2.1538463E-1,-5.6170214E-2,-5.063291E-3,6.5671645E-2,-2.9850746E-2,1.3231939E-1,-1.6438356E-2],"categories":[],"categories_nodes":[],"categories_segments":[],"categories_sizes":[],"default_left":[0,0,0,0,0,0,0,0,0,0,0,0,0,0,0,0,0,0,0,0,0,0,0,0,0,0,0,0,0,0,0,0,0,0,0,0,0,0,0,0,0,0,0,0,0,0,0,0,0,0,0,0,0,0,0,0,0,0,0,0,0,0,0,0,0,0,0,0,0,0,0],"id":4,"left_children":[1,3,5,7,9,11,-1,13,15,17,19,21,23,25,27,29,-1,31,-1,33,35,37,39,41,43,45,47,49,51,53,55,57,59,61,63,-1,-1,65,67,69,-1,-1,-1,-1,-1,-1,-1,-1,-1,-1,-1,-1,-1,-1,-1,-1,-1,-1,-1,-1,-1,-1,-1,-1,-1,-1,-1,-1,-1,-1,-1],"loss_changes":[9.617517E2,4.5697467E2,1.4309967E1,2.2648047E2,1.0821619E2,2.2311409E1,0E0,5.784392E1,1.851547E2,1.091698E2,1.8596292E1,9.009433E0,6.738493E0,1.5055458E1,5.0123417E1,8.6420105E1,0E0,5.5154663E1,0E0,1.2537827E1,6.6952753E-1,1.53125E0,4.3059177E0,4.6661644E0,1.1364887E0,1.7332678E1,8.1435394E-1,2.2544777E1,7.5062265E0,4.728557E1,1.7959686E1,2.9344482E1,4.310106E0,1.7220415E0,8.4062195E0,0E0,0E0,9.127388E-1,9.130817E-1,1.1201301E1,0E0,0E0,0E0,0E0,0E0,0E0,0E0,0E0,0E0,0E0,0E0,0E0,0E0,0E0,0E0,0E0,0E0,0E0,0E0,0E0,0E0,0E0,0E0,0E0,0E0,0E0,0E0,0E0,0E0,0E0,0E0],"parents":[2147483647,0,0,1,1,2,2,3,3,4,4,5,5,7,7,8,8,9,9,10,10,11,11,12,12,13,13,14,14,15,15,17,17,19,19,20,20,21,21,22,22,23,23,24,24,25,25,26,26,27,27,28,28,29,29,30,30,31,31,32,32,33,33,34,34,37,37,38,38,39,39],"right_children":[2,4,6,8,10,12,-1,14,16,18,20,22,24,26,28,30,-1,32,-1,34,36,38,40,42,44,46,48,50,52,54,56,58,60,62,64,-1,-1,66,68,70,-1,-1,-1,-1,-1,-1,-1,-1,-1,-1,-1,-1,-1,-1,-1,-1,-1,-1,-1,-1,-1,-1,-1,-1,-1,-1,-1,-1,-1,-1,-1],"split_conditions":[6.6301217E0,4.5240057E2,8.493383E0,3.9669773E4,5.2342867E4,5.236863E2,-5.6993682E-2,5.481726E2,1.9245825E5,1.4040144E5,6.841643E4,3.9100133E4,6.032144E0,5.5372016E4,5.154998E4,6.0961316E4,-5.5536028E-2,1.0459731E0,-5.1282056E-2,9.7905487E-1,9.376414E1,4.397986E1,6.732453E5,3.8253372E2,7.016744E0,3.424349E-1,4.8731388E1,4.4200864E-1,1.5920782E3,5.7394875E4,6.73019E4,3.030074E2,2.6543227E4,5.6007556E2,1.2547803E3,-5.1651653E-2,1.7910449E-2,1.424044E3,1.426404E2,2.9665582E4,-4.9122807E-2,1.7910449E-2,2.699187E-1,6.5671645E-2,-3.4567904E-2,4.7244098E-2,-3.3212997E-2,-5.565731E-2,1.7910449E-2,1.7495713E-1,-2.3140496E-2,-3.5306334E-2,1.6119403E-1,1.7445682E-1,-2.2524273E-2,3.197889E-1,-3.2432433E-2,1.364706E-1,3.391179E-1,-4.6060607E-2,1.0909092E-1,-4.4444446E-2,6.5671645E-2,-3.2432433E-2,2.1538463E-1,-5.6170214E-2,-5.063291E-3,6.5671645E-2,-2.9850746E-2,1.3231939E-1,-1.6438356E-2],"split_indices":[0,7,0,13,8,7,0,6,13,13,8,13,19,8,8,13,0,5,0,18,2,12,4,6,0,14,12,14,11,8,8,6,13,7,11,0,0,11,1,8,0,0,0,0,0,0,0,0,0,0,0,0,0,0,0,0,0,0,0,0,0,0,0,0,0,0,0,0,0,0,0],"split_type":[0,0,0,0,0,0,0,0,0,0,0,0,0,0,0,0,0,0,0,0,0,0,0,0,0,0,0,0,0,0,0,0,0,0,0,0,0,0,0,0,0,0,0,0,0,0,0,0,0,0,0,0,0,0,0,0,0,0,0,0,0,0,0,0,0,0,0,0,0,0,0],"sum_hessian":[1.75E3,6.01125E2,1.148875E3,4.4428125E2,1.5684375E2,9.646875E1,1.0524062E3,2.8896875E2,1.553125E2,1.316875E2,2.515625E1,8.990625E1,6.5625E0,2.1678125E2,7.21875E1,1.2075E2,3.45625E1,1.229375E2,8.75E0,1.465625E1,1.05E1,6.3875E1,2.603125E1,3.9375E0,2.625E0,1.1090625E2,1.05875E2,4.2E1,3.01875E1,7.30625E1,4.76875E1,1.1703125E2,5.90625E0,4.59375E0,1.00625E1,9.40625E0,1.09375E0,6.16875E1,2.1875E0,1.990625E1,6.125E0,1.09375E0,2.84375E0,1.09375E0,1.53125E0,4.265625E1,6.825E1,1.0478125E2,1.09375E0,3.54375E1,6.5625E0,2.909375E1,1.09375E0,5.796875E1,1.509375E1,4.6375E1,1.3125E0,9.625E0,1.0740625E2,4.15625E0,1.75E0,3.5E0,1.09375E0,1.3125E0,8.75E0,5.775E1,3.9375E0,1.09375E0,1.09375E0,7.21875E0,1.26875E1],"tree_param":{"num_deleted":"0","num_feature":"20","num_nodes":"71","size_leaf_vector":"1"}},{"base_weights":[-0E0,-5.418139E-1,3.9108765E0,-5.671337E-1,3.4871796E-1,3.957346E0,-3.9215688E-2,-5.6974655E-1,1.4054054E-1,1.7910449E-2,3.97618E-1,-5.7039946E-1,-0E0,-5.7105374E-2,-1.10091746E-1,1.7910449E-2,-3.2432433E-2],"categories":[],"categories_nodes":[],"categories_segments":[],"categories_sizes":[],"default_left":[0,0,0,0,0,0,0,0,0,0,0,0,0,0,0,0,0],"id":5,"left_children":[1,3,5,7,-1,9,-1,11,-1,-1,-1,13,-1,-1,15,-1,-1],"loss_changes":[3.7124307E3,1.5895706E2,4.4180664E1,8.686523E0,0E0,1.430249E1,0E0,5.6869507E-1,0E0,0E0,0E0,3.970337E-1,0E0,0E0,2.6912302E-1,0E0,0E0],"parents":[2147483647,0,0,1,1,2,2,3,3,5,5,7,7,11,11,14,14],"right_children":[2,4,6,8,-1,10,-1,12,-1,-1,-1,14,-1,-1,16,-1,-1],"split_conditions":[1.5059964E2,1.1179035E6,5.998038E3,6.854799E7,3.4871796E-1,2.872355E2,-3.9215688E-2,1.0022727E3,1.4054054E-1,1.7910449E-2,3.97618E-1,5.114317E7,-0E0,-5.7105374E-2,6.858461E1,1.7910449E-2,-3.2432433E-2],"split_indices":[12,13,8,4,0,10,0,10,0,0,0,4,0,0,0,0,0],"split_type":[0,0,0,0,0,0,0,0,0,0,0,0,0,0,0,0,0],"sum_hessian":[1.75E3,1.5378125E3,2.121875E2,1.5290625E3,8.75E0,2.1E2,2.1875E0,1.52775E3,1.3125E0,1.09375E0,2.0890625E2,1.526E3,1.75E0,1.5235938E3,2.40625E0,1.09375E0,1.3125E0],"tree_param":{"num_deleted":"0","num_feature":"20","num_nodes":"17","size_leaf_vector":"1"}},{"base_weights":[-0E0,2.2657342E0,-5.44827E-1,-3.5054475E-1,2.88588E0,-5.553753E-1,1.5489361E0,-5.046729E-1,2.87703E-1,3.1364956E-1,3.2152028E0,-2.1754043E-1,-5.7100315E-2,2.5822785E0,-4.0366974E-2,-5.401369E-1,2.919708E-2,-4.204204E-1,2.0307693E0,-3.243243E-1,1.0909091E0,3.4370654E0,-3.3675563E-1,-5.529768E-2,9.61183E-2,6.5671645E-2,2.9593498E-1,-5.5936676E-2,-1.6260162E-1,-3.9215688E-2,6.5671645E-2,-5.1006712E-2,1.7910449E-2,6.5671645E-2,2.3157895E-1,-5.1764708E-2,-5.6338027E-2,1.809886E0,1.6528925E-1,3.5746748E0,5.217391E-1,-5.3097345E-2,1.1343284E-1,-5.373135E-2,6.782007E-1,1.7910449E-2,-3.636364E-2,-4.556962E-2,3.5443038E-2,4.770642E-2,2.27957E-1,-2.905028E-2,9.68421E-2,3.6242935E-1,6.153846E-3,1.4400001E-1,-4.8E-2,1.2208437E-1,-4.830918E-2],"categories":[],"categories_nodes":[],"categories_segments":[],"categories_sizes":[],"default_left":[0,0,0,0,0,0,0,0,0,0,0,0,0,0,0,0,0,0,0,0,0,0,0,0,0,0,0,0,0,0,0,0,0,0,0,0,0,0,0,0,0,0,0,0,0,0,0,0,0,0,0,0,0,0,0,0,0,0,0],"id":6,"left_children":[1,3,5,7,9,11,13,15,17,19,21,23,-1,25,-1,27,29,31,33,35,37,39,41,-1,43,-1,-1,-1,45,-1,-1,-1,-1,-1,-1,-1,47,49,51,53,55,-1,-1,-1,57,-1,-1,-1,-1,-1,-1,-1,-1,-1,-1,-1,-1,-1,-1],"loss_changes":[2.1627268E3,5.5204456E2,3.2053436E1,6.6346693E0,2.3165137E2,7.2991333E0,1.5859947E1,1.0286951E0,1.7478336E1,1.6361155E1,1.92948E2,6.7637386E0,0E0,1.6415367E0,0E0,2.7363205E-1,1.3895316E0,6.506437E-1,7.019234E-2,9.292817E-1,9.537754E0,9.006714E1,4.950458E0,0E0,1.2831395E1,0E0,0E0,0E0,3.2917455E-1,0E0,0E0,0E0,0E0,0E0,0E0,0E0,1.6174005E0,4.057478E0,3.049666E0,3.7892334E1,1.1269565E1,0E0,0E0,0E0,1.1972176E1,0E0,0E0,0E0,0E0,0E0,0E0,0E0,0E0,0E0,0E0,0E0,0E0,0E0,0E0],"parents":[2147483647,0,0,1,1,2,2,3,3,4,4,5,5,6,6,7,7,8,8,9,9,10,10,11,11,13,13,15,15,16,16,17,17,18,18,19,19,20,20,21,21,22,22,24,24,28,28,36,36,37,37,38,38,39,39,40,40,44,44],"right_children":[2,4,6,8,10,12,14,16,18,20,22,24,-1,26,-1,28,30,32,34,36,38,40,42,-1,44,-1,-1,-1,46,-1,-1,-1,-1,-1,-1,-1,48,50,52,54,56,-1,-1,-1,58,-1,-1,-1,-1,-1,-1,-1,-1,-1,-1,-1,-1,-1,-1],"split_conditions":[5.6171253E1,1.5556444E4,2.421034E2,1.4518229E4,1.0861142E2,7.442174E1,7.284395E1,1.7972043E4,1.0582787E2,8.985025E1,2.6188766E4,1.6055054E4,-5.7100315E-2,1.1787735E2,-4.0366974E-2,1.5127473E0,1.6119139E2,2.340438E2,1.2475265E2,6.6065674E1,5.5175957E1,7.2109535E1,1.0294366E2,-5.529768E-2,1.3556093E2,6.5671645E-2,2.9593498E-1,-5.5936676E-2,2.889414E3,-3.9215688E-2,6.5671645E-2,-5.1006712E-2,1.7910449E-2,6.5671645E-2,2.3157895E-1,-5.1764708E-2,4.5243672E-1,1.6377678E1,7.1157144E3,2.3024162E4,8.141325E1,-5.3097345E-2,1.1343284E-1,-5.373135E-2,3.879897E2,1.7910449E-2,-3.636364E-2,-4.556962E-2,3.5443038E-2,4.770642E-2,2.27957E-1,-2.905028E-2,9.68421E-2,3.6242935E-1,6.153846E-3,1.4400001E-1,-4.8E-2,1.2208437E-1,-4.830918E-2],"split_indices":[7,8,0,8,6,7,7,9,10,6,8,8,0,6,0,5,0,0,0,6,12,12,0,0,6,0,0,0,1,0,0,0,0,0,0,0,14,19,1,13,12,0,0,0,15,0,0,0,0,0,0,0,0,0,0,0,0,0,0],"split_type":[0,0,0,0,0,0,0,0,0,0,0,0,0,0,0,0,0,0,0,0,0,0,0,0,0,0,0,0,0,0,0,0,0,0,0,0,0,0,0,0,0,0,0,0,0,0,0,0,0,0,0,0,0,0,0,0,0,0,0],"sum_hessian":[1.75E3,3.38625E2,1.411375E3,6.496875E1,2.7365625E2,1.4050312E3,6.34375E0,5.25E1,1.246875E1,3.128125E1,2.42375E2,6.278125E1,1.34225E3,3.9375E0,2.40625E0,4.921875E1,3.28125E0,9.40625E0,3.0625E0,1.75E1,1.378125E1,2.2815625E2,1.421875E1,2.996875E1,3.28125E1,1.09375E0,2.84375E0,4.6375E1,2.84375E0,2.1875E0,1.09375E0,8.3125E0,1.09375E0,1.09375E0,1.96875E0,9.625E0,7.875E0,7.21875E0,6.5625E0,2.1765625E2,1.05E1,1.3125E1,1.09375E0,1.575E1,1.70625E1,1.09375E0,1.75E0,3.9375E0,3.9375E0,2.40625E0,4.8125E0,4.59375E0,1.96875E0,2.1459375E2,3.0625E0,5.25E0,5.25E0,1.159375E1,5.46875E0],"tree_param":{"num_deleted":"0","num_feature":"20","num_nodes":"59","size_leaf_vector":"1"}},{"base_weights":[-0E0,-4.0802762E-1,1.8081768E0,2.0229988E-1,-5.561561E-1,2.7152956E0,-1.6585366E-1,1.344205E0,-5.0477046E-1,-2.7143922E-1,-5.6640756E-1,3.018012E0,1.0018018E0,7.154471E-1,-5.3608245E-1,2.1117494E0,3.6879432E-1,3.2340425E-1,-5.381166E-1,1.694291E-1,-5.4939758E-2,6.153846E-2,-5.6820106E-2,3.120636E0,1.6528925E-1,1.5802469E0,1.7813765E-1,2.1301775E-1,1.6470588E0,1.0810811E-2,-5.494313E-1,-4.7668394E-2,2.3580387E0,1.010952E-2,1.4141414E0,1.6296296E-1,-3.0107528E-1,-2.5531915E-1,-5.676349E-2,1.2413793E0,-1.1328976E-1,6.5671645E-2,-3.7894737E-2,1.7280967E0,3.280062E0,-3.2E-1,1.4054054E-1,2.1873639E0,9.049774E-2,8.680851E-1,-3.9862543E-1,4.4444445E-1,-4.7311828E-2,3.0769232E-1,2.1487603E0,-5.6315076E-2,-1.10091746E-1,6.839379E-2,2.5134966E-1,-1.2252253E-2,1.3577983E-1,2.4578314E-1,-2.905028E-2,-4.5033112E-2,1.7910449E-2,-4.048583E-2,5.4901965E-2,1.7910449E-2,1.6296296E-1,7.272728E-2,-2.878412E-2,2.0799999E-1,-0E0,4.4444446E-2,3.340206E-1,1.7910449E-2,-4.6060607E-2,2.6703602E-1,3.0769233E-2,6.896552E-2,-4.3795623E-2,1.2473118E-1,-3.4567904E-2,1.7910449E-2,-5E-2,-2.1052632E-2,8.588957E-2,-3.7894737E-2,1.1343284E-1,2.6735753E-1,4.938272E-3,1.7910449E-2,-3.2432433E-2],"categories":[],"categories_nodes":[],"categories_segments":[],"categories_sizes":[],"default_left":[0,0,0,0,0,0,0,0,0,0,0,0,0,0,0,0,0,0,0,0,0,0,0,0,0,0,0,0,0,0,0,0,0,0,0,0,0,0,0,0,0,0,0,0,0,0,0,0,0,0,0,0,0,0,0,0,0,0,0,0,0,0,0,0,0,0,0,0,0,0,0,0,0,0,0,0,0,0,0,0,0,0,0,0,0,0,0,0,0,0,0,0,0],"id":7,"left_children":[1,3,5,7,9,11,13,15,17,19,21,23,25,27,29,31,33,35,37,39,-1,41,-1,43,45,47,49,51,53,-1,55,-1,57,59,61,-1,63,65,-1,67,69,-1,-1,71,73,75,-1,77,79,81,83,85,-1,87,89,-1,91,-1,-1,-1,-1,-1,-1,-1,-1,-1,-1,-1,-1,-1,-1,-1,-1,-1,-1,-1,-1,-1,-1,-1,-1,-1,-1,-1,-1,-1,-1,-1,-1,-1,-1,-1,-1],"loss_changes":[1.2926011E3,1.293435E2,5.780565E2,2.2667685E2,3.2043762E0,1.11642334E2,3.3827545E1,7.956294E1,4.9680634E0,5.2284026E0,1.284668E0,5.433972E1,1.6245167E1,1.4042273E1,6.849899E-1,3.927466E1,1.815907E1,6.481019E0,1.2512245E0,5.283194E0,0E0,1.3139162E0,0E0,3.447339E1,5.0009556E0,1.8117203E1,6.489181E0,3.5647173E0,6.478441E0,0E0,3.685894E-1,0E0,1.254599E1,6.7967463E0,2.2730618E1,0E0,4.9723613E-1,2.3422122E0,0E0,1.2031798E0,2.313874E0,0E0,0E0,1.25805435E1,2.5994629E1,5.211036E-1,0E0,1.2200668E1,2.4887447E0,3.8114376E0,6.2214696E-1,4.608905E0,0E0,2.7357302E0,8.200218E0,0E0,2.6912302E-1,0E0,0E0,0E0,0E0,0E0,0E0,0E0,0E0,0E0,0E0,0E0,0E0,0E0,0E0,0E0,0E0,0E0,0E0,0E0,0E0,0E0,0E0,0E0,0E0,0E0,0E0,0E0,0E0,0E0,0E0,0E0,0E0,0E0,0E0,0E0,0E0],"parents":[2147483647,0,0,1,1,2,2,3,3,4,4,5,5,6,6,7,7,8,8,9,9,10,10,11,11,12,12,13,13,14,14,15,15,16,16,17,17,18,18,19,19,21,21,23,23,24,24,25,25,26,26,27,27,28,28,30,30,32,32,33,33,34,34,36,36,37,37,39,39,40,40,43,43,44,44,45,45,47,47,48,48,49,49,50,50,51,51,53,53,54,54,56,56],"right_children":[2,4,6,8,10,12,14,16,18,20,22,24,26,28,30,32,34,36,38,40,-1,42,-1,44,46,48,50,52,54,-1,56,-1,58,60,62,-1,64,66,-1,68,70,-1,-1,72,74,76,-1,78,80,82,84,86,-1,88,90,-1,92,-1,-1,-1,-1,-1,-1,-1,-1,-1,-1,-1,-1,-1,-1,-1,-1,-1,-1,-1,-1,-1,-1,-1,-1,-1,-1,-1,-1,-1,-1,-1,-1,-1,-1,-1,-1],"split_conditions":[6.601856E4,2.1600142E1,1.7188623E4,1.8216336E4,2.4762096E1,1.2115071E3,2.3024162E4,9.950618E2,1.9589166E4,2.0372457E4,9.765021E1,2.9680443E1,1.37569065E1,1.1139692E1,3.6016056E1,8.68003E-1,9.965871E0,3.3651178E2,2.339595E4,5.7103357E0,-5.4939758E-2,8.734508E4,-5.6820106E-2,1.0639638E2,1.4176818E1,6.935218E2,4.0790372E2,1.2180662E3,5.830157E0,1.0810811E-2,1.8594694E1,-4.7668394E-2,7.149656E1,4.2002866E3,1.297009E3,1.6296296E-1,6.008557E-1,1.2887227E1,-5.676349E-2,9.754624E1,3.8716953E1,6.5671645E-2,-3.7894737E-2,4.8438507E1,1.5621549E1,3.4794424E0,1.4054054E-1,1.2860396E0,1.43918E3,3.681713E4,2.888469E2,3.4534523E-1,-4.7311828E-2,1.4176818E1,3.7217337E2,-5.6315076E-2,6.3900784E1,6.839379E-2,2.5134966E-1,-1.2252253E-2,1.3577983E-1,2.4578314E-1,-2.905028E-2,-4.5033112E-2,1.7910449E-2,-4.048583E-2,5.4901965E-2,1.7910449E-2,1.6296296E-1,7.272728E-2,-2.878412E-2,2.0799999E-1,-0E0,4.4444446E-2,3.340206E-1,1.7910449E-2,-4.6060607E-2,2.6703602E-1,3.0769233E-2,6.896552E-2,-4.3795623E-2,1.2473118E-1,-3.4567904E-2,1.7910449E-2,-5E-2,-2.1052632E-2,8.588957E-2,-3.7894737E-2,1.1343284E-1,2.6735753E-1,4.938272E-3,1.7910449E-2,-3.2432433E-2],"split_indices":[8,12,13,13,12,11,13,11,13,13,9,12,12,0,10,18,0,6,13,19,0,4,0,13,0,6,7,11,19,0,0,0,16,15,11,0,5,0,0,2,10,0,0,10,7,0,0,5,11,3,6,14,0,0,7,0,1,0,0,0,0,0,0,0,0,0,0,0,0,0,0,0,0,0,0,0,0,0,0,0,0,0,0,0,0,0,0,0,0,0,0,0,0],"split_type":[0,0,0,0,0,0,0,0,0,0,0,0,0,0,0,0,0,0,0,0,0,0,0,0,0,0,0,0,0,0,0,0,0,0,0,0,0,0,0,0,0,0,0,0,0,0,0,0,0,0,0,0,0,0,0,0,0,0,0,0,0,0,0,0,0,0,0,0,0,0,0,0,0,0,0,0,0,0,0,0,0,0,0,0,0,0,0,0,0,0,0,0,0],"sum_hessian":[1.75E3,1.4284375E3,3.215625E2,2.7890625E2,1.1495312E3,2.200625E2,1.015E2,1.063125E2,1.7259375E2,4.090625E1,1.108625E3,1.86375E2,3.36875E1,2.975E1,7.175E1,5.884375E1,4.746875E1,6.34375E0,1.6625E2,1.596875E1,2.49375E1,3.0625E0,1.1055625E3,1.798125E2,6.5625E0,1.925E1,1.44375E1,2.0125E1,9.625E0,1.3125E0,7.04375E1,5.03125E0,5.38125E1,3.609375E1,1.1375E1,1.53125E0,4.8125E0,1.6625E1,1.49625E2,2.625E0,1.334375E1,1.09375E0,1.96875E0,1.96875E1,1.60125E2,5.25E0,1.3125E0,1.334375E1,5.90625E0,6.34375E0,8.09375E0,1.53125E1,4.8125E0,3.0625E0,6.5625E0,6.803125E1,2.40625E0,5.03125E0,4.878125E1,3.36875E1,2.40625E0,6.78125E0,4.59375E0,3.71875E0,1.09375E0,1.44375E1,2.1875E0,1.09375E0,1.53125E0,1.75E0,1.159375E1,1.61875E1,3.5E0,3.5E0,1.56625E2,1.09375E0,4.15625E0,1.028125E1,3.0625E0,2.625E0,3.28125E0,4.8125E0,1.53125E0,1.09375E0,7E0,6.125E0,9.1875E0,1.96875E0,1.09375E0,5.03125E0,1.53125E0,1.09375E0,1.3125E0],"tree_param":{"num_deleted":"0","num_feature":"20","num_nodes":"93","size_leaf_vector":"1"}},{"base_weights":[2.8213556E-3,-3.4052393E-1,9.676022E-1,1.9769862E-1,-5.3918856E-1,5.2431774E-1,1.5327067E0,3.443313E-2,2.1263347E0,-5.4441816E-1,1.3757668E-1,3.3449385E-1,1.779592E0,6.734943E-1,2.2221518E0,1.8310709E0,-3.1987738E-2,2.4355824E0,-1.9119559E-1,3.800727E-1,-5.4858416E-1,1.0585922E-1,1.1063217E0,2.5842948E0,1.335218E0,3.4162065E-1,1.8160946E0,1.5354062E0,2.3920026E0,-3.4651473E-2,2.2035873E0,1.2812091E0,-1.2273877E-1,6.644578E-2,2.4886215E0,-3.8612083E-2,1.857779E-2,-4.178012E-2,1.6709995E-1,4.0349957E-1,-5.5173945E-1,1.8893095E-2,1.4333857E0,9.158136E-1,2.2888017E0,5.8554083E-2,2.77333E-1,6.79302E-1,1.962492E0,1.3822643E0,-1.0329459E-2,2.2294128E0,9.953354E-1,1.6760167E0,-3.4828387E-2,2.429703E0,3.5318203E-2,1.6001815E-2,2.4510637E-1,7.980736E-2,2.239424E-1,1.6714798E-1,-1.6008578E-2,6.711338E-2,2.5453168E-1,1.09232165E-1,-3.4387782E-2,-9.577665E-3,-5.5696737E-2,6.4268075E-2,-9.204398E-3,3.6551356E-2,1.9807419E-1,5.2620303E-2,1.2895341E-1,2.4687946E-1,6.831463E-2,8.837861E-2,-3.7384246E-2,1.2939214E-2,2.1654657E-1,1.6239701E-1,-3.8087558E-2,-2.337419E-2,1.7561714E-1,5.2786347E-2,2.3805468E-1,1.2642372E-1,-3.2517698E-2,1.7787202E-1,5.077688E-2,2.453829E-1,2.0316236E-2],"categories":[],"categories_nodes":[],"categories_segments":[],"categories_sizes":[],"default_left":[0,0,0,0,0,0,0,0,0,0,0,0,0,0,0,0,0,0,0,0,0,0,0,0,0,0,0,0,0,0,0,0,0,0,0,0,0,0,0,0,0,0,0,0,0,0,0,0,0,0,0,0,0,0,0,0,0,0,0,0,0,0,0,0,0,0,0,0,0,0,0,0,0,0,0,0,0,0,0,0,0,0,0,0,0,0,0,0,0,0,0,0,0],"id":8,"left_children":[1,3,5,7,9,11,13,15,17,19,-1,21,23,25,27,29,31,33,35,37,39,41,43,45,47,49,51,53,55,-1,57,59,61,-1,63,-1,-1,-1,-1,65,67,69,71,73,75,-1,-1,77,79,81,83,85,87,89,-1,91,-1,-1,-1,-1,-1,-1,-1,-1,-1,-1,-1,-1,-1,-1,-1,-1,-1,-1,-1,-1,-1,-1,-1,-1,-1,-1,-1,-1,-1,-1,-1,-1,-1,-1,-1,-1,-1],"loss_changes":[5.767901E2,1.3742273E2,1.1368176E2,1.0917647E2,1.0145203E1,6.0794907E1,1.1720816E2,3.835228E1,1.986097E1,3.815094E0,0E0,3.9592537E1,8.568352E0,3.375191E1,9.244629E0,1.0057781E1,3.715327E1,5.961609E-1,3.7397945E-1,5.633461E0,3.0243225E0,2.0142843E1,9.46468E0,2.490181E0,8.427235E0,2.6191978E1,4.62352E0,7.1394157E0,5.8283997E0,0E0,4.6245384E0,7.543041E0,1.9786072E1,0E0,6.502533E-1,0E0,0E0,0E0,0E0,2.2589107E0,2.1635132E0,1.1475912E1,5.5466137E0,5.99971E0,1.786232E-1,0E0,0E0,3.1570702E0,4.034565E0,8.319706E0,2.1881083E1,1.985817E0,3.4513903E0,1.8808823E0,0E0,4.080475E0,0E0,0E0,0E0,0E0,0E0,0E0,0E0,0E0,0E0,0E0,0E0,0E0,0E0,0E0,0E0,0E0,0E0,0E0,0E0,0E0,0E0,0E0,0E0,0E0,0E0,0E0,0E0,0E0,0E0,0E0,0E0,0E0,0E0,0E0,0E0,0E0,0E0],"parents":[2147483647,0,0,1,1,2,2,3,3,4,4,5,5,6,6,7,7,8,8,9,9,11,11,12,12,13,13,14,14,15,15,16,16,17,17,18,18,19,19,20,20,21,21,22,22,23,23,24,24,25,25,26,26,27,27,28,28,30,30,31,31,32,32,34,34,39,39,40,40,41,41,42,42,43,43,44,44,47,47,48,48,49,49,50,50,51,51,52,52,53,53,55,55],"right_children":[2,4,6,8,10,12,14,16,18,20,-1,22,24,26,28,30,32,34,36,38,40,42,44,46,48,50,52,54,56,-1,58,60,62,-1,64,-1,-1,-1,-1,66,68,70,72,74,76,-1,-1,78,80,82,84,86,88,90,-1,92,-1,-1,-1,-1,-1,-1,-1,-1,-1,-1,-1,-1,-1,-1,-1,-1,-1,-1,-1,-1,-1,-1,-1,-1,-1,-1,-1,-1,-1,-1,-1,-1,-1,-1,-1,-1,-1],"split_conditions":[5.154998E4,3.1708225E1,1.5828989E4,6.083254E-1,7.035262E-1,6.1166016E2,7.5815E4,4.5975983E1,1.6355404E1,4.8317474E2,1.3757668E-1,3.5795084E2,1.960223E3,8.90554E0,1.980975E4,2.2005568E1,1.0598741E2,9.823121E-1,2.6391317E1,6.485242E2,9.765021E1,2.8028152E1,6.840619E-1,9.398292E-1,9.327832E3,9.0383264E2,1.0104433E0,2.14596E5,4.0331825E1,-3.4651473E-2,3.765614E1,4.6043506E-1,1.1169283E-2,6.644578E-2,4.4407693E2,-3.8612083E-2,1.857779E-2,-4.178012E-2,1.6709995E-1,1.7951868E2,4.2810818E1,4.8562775E2,5.881031E0,4.2571112E2,1.1327855E2,5.8554083E-2,2.77333E-1,2.5386145E1,8.6657715E2,3.3954834E1,5.1129514E-1,5.657863E0,7.1594375E4,4.1786885E3,-3.4828387E-2,2.3425562E1,3.5318203E-2,1.6001815E-2,2.4510637E-1,7.980736E-2,2.239424E-1,1.6714798E-1,-1.6008578E-2,6.711338E-2,2.5453168E-1,1.09232165E-1,-3.4387782E-2,-9.577665E-3,-5.5696737E-2,6.4268075E-2,-9.204398E-3,3.6551356E-2,1.9807419E-1,5.2620303E-2,1.2895341E-1,2.4687946E-1,6.831463E-2,8.837861E-2,-3.7384246E-2,1.2939214E-2,2.1654657E-1,1.6239701E-1,-3.8087558E-2,-2.337419E-2,1.7561714E-1,5.2786347E-2,2.3805468E-1,1.2642372E-1,-3.2517698E-2,1.7787202E-1,5.077688E-2,2.453829E-1,2.0316236E-2],"split_indices":[8,12,13,14,14,6,8,6,0,4,0,7,13,0,13,17,8,12,12,3,9,12,14,18,13,11,18,4,12,0,10,14,14,0,11,0,0,0,0,7,6,13,19,7,1,0,0,17,4,12,14,19,9,16,0,0,0,0,0,0,0,0,0,0,0,0,0,0,0,0,0,0,0,0,0,0,0,0,0,0,0,0,0,0,0,0,0,0,0,0,0,0,0],"split_type":[0,0,0,0,0,0,0,0,0,0,0,0,0,0,0,0,0,0,0,0,0,0,0,0,0,0,0,0,0,0,0,0,0,0,0,0,0,0,0,0,0,0,0,0,0,0,0,0,0,0,0,0,0,0,0,0,0,0,0,0,0,0,0,0,0,0,0,0,0,0,0,0,0,0,0,0,0,0,0,0,0,0,0,0,0,0,0,0,0,0,0,0,0],"sum_hessian":[1.7392428E3,1.2832191E3,4.5602374E2,3.4595688E2,9.372622E2,2.5663757E2,1.9938615E2,3.198946E2,2.6062294E1,9.354233E2,1.838876E0,2.2402652E2,3.261106E1,8.964457E1,1.09741585E2,1.0457549E1,3.0943704E2,2.2949066E1,3.113227E0,3.7915833E0,9.316317E2,1.7370726E2,5.031926E1,9.888575E0,2.2722486E1,7.0474045E1,1.9170527E1,2.3750921E1,8.599067E1,1.5378244E0,8.919724E0,1.915404E1,2.9028302E2,1.0605932E0,2.1888474E1,2.036124E0,1.0771029E0,2.761289E0,1.0302944E0,2.6582146E0,9.289735E2,1.6397922E2,9.728029E0,4.4865513E1,5.453746E0,1.2084645E0,8.68011E0,1.2125874E1,1.0596612E1,1.7071047E1,5.3402996E1,1.1608458E1,7.56207E0,2.2203743E1,1.5471785E0,8.424122E1,1.7494452E0,1.1413634E0,7.778361E0,1.3952176E1,5.201863E0,5.0268846E0,2.8525613E2,1.0504835E0,2.083799E1,1.1431177E0,1.5150968E0,1.0749567E1,9.1822394E2,2.4035711E1,1.3994351E2,3.8617241E0,5.8663054E0,2.314472E1,2.1720793E1,4.4206343E0,1.0331119E0,1.0288932E1,1.8369415E0,1.2196015E0,9.377011E0,1.5082364E1,1.9886824E0,4.8177574E1,5.2254205E0,1.3134626E0,1.0294995E1,6.318103E0,1.2439668E0,1.9929169E1,2.2745743E0,8.32372E1,1.00402E0],"tree_param":{"num_deleted":"0","num_feature":"20","num_nodes":"93","size_leaf_vector":"1"}},{"base_weights":[-2.0195253E-3,-5.4241943E-1,1.3829038E0,-5.5804247E-1,6.419355E-1,2.5809312E0,-5.6304604E-2,-5.6123316E-1,9.018041E-2,-3.9560777E-1,1.6555431E0,2.6987424E0,-4.3957686E-1,-5.6362593E-1,6.531462E-2,-4.9654577E-2,1.8925563E-2,2.2718775E0,-3.7146647E-2,2.7089972E0,4.392742E-2,1.9746093E-2,-5.1666882E-2,-5.652205E-2,-2.3038119E-1,2.469474E-1,6.442144E-2,2.714322E-1,9.165596E-2,-4.806052E-2,6.51698E-2],"categories":[],"categories_nodes":[],"categories_segments":[],"categories_sizes":[],"default_left":[0,0,0,0,0,0,0,0,0,0,0,0,0,0,0,0,0,0,0,0,0,0,0,0,0,0,0,0,0,0,0],"id":9,"left_children":[1,3,5,7,9,11,-1,13,-1,15,17,19,21,23,-1,-1,-1,25,-1,27,-1,-1,-1,-1,29,-1,-1,-1,-1,-1,-1],"loss_changes":[1.3095376E3,2.364685E1,1.1464053E3,6.294983E0,1.8377174E1,1.09420044E2,0E0,3.9731445E0,0E0,6.3323605E-1,1.1734236E1,5.5961914E0,7.0499253E-1,5.281067E-1,0E0,0E0,0E0,6.0419846E-1,0E0,2.9296875E-1,0E0,0E0,0E0,0E0,1.9878654E0,0E0,0E0,0E0,0E0,0E0,0E0],"parents":[2147483647,0,0,1,1,2,2,3,3,4,4,5,5,7,7,9,9,10,10,11,11,12,12,13,13,17,17,19,19,24,24],"right_children":[2,4,6,8,10,12,-1,14,-1,16,18,20,22,24,-1,-1,-1,26,-1,28,-1,-1,-1,-1,30,-1,-1,-1,-1,-1,-1],"split_conditions":[1.4040144E5,1.0569882E3,1.9238983E2,1.112707E2,3.0110016E2,1.1179035E6,-5.6304604E-2,4.207167E6,9.018041E-2,2.780847E2,1.6849157E-1,6.854799E7,1.2083235E6,9.7576215E2,6.531462E-2,-4.9654577E-2,1.8925563E-2,6.2322742E1,-3.7146647E-2,2.5405367E4,4.392742E-2,1.9746093E-2,-5.1666882E-2,-5.652205E-2,3.0912664E1,2.469474E-1,6.442144E-2,2.714322E-1,9.165596E-2,-4.806052E-2,6.51698E-2],"split_indices":[13,6,12,12,7,13,0,4,0,15,5,4,13,6,0,0,0,0,0,8,0,0,0,0,12,0,0,0,0,0,0],"split_type":[0,0,0,0,0,0,0,0,0,0,0,0,0,0,0,0,0,0,0,0,0,0,0,0,0,0,0,0,0,0,0],"sum_hessian":[1.7477515E3,1.25763E3,4.9012146E2,1.2417784E3,1.5851644E1,3.031564E2,1.8696507E2,1.2396844E3,2.093996E0,8.134626E0,7.717017E0,2.9187857E2,1.1277845E1,1.2377815E3,1.9029564E0,7.066131E0,1.0684948E0,5.8250456E0,1.8919718E0,2.903618E2,1.5167832E0,1.0489159E0,1.02289295E1,1.2311941E3,6.587332E0,4.7332463E0,1.0917991E0,2.8898898E2,1.3728001E0,5.486182E0,1.1011493E0],"tree_param":{"num_deleted":"0","num_feature":"20","num_nodes":"31","size_leaf_vector":"1"}},{"base_weights":[-2.7382953E-4,-5.6597866E-2,1.3954117E0,2.3627796E0,1.7803717E-1,2.474297E0,5.783083E-1,2.2525342E0,-1.723807E-1,2.583122E0,1.7810299E0,-7.666224E-2,2.0548658E0,2.5012538E-1,1.095894E0,-2.8508127E-1,1.5580906E0,5.065542E-2,2.593625E0,2.5798756E-1,1.1996511E0,8.055244E-1,-4.1538322E-1,5.6160897E-2,2.3619998E-1,4.419732E-1,1.9254468E-1,-3.4378704E-1,1.2989732E0,7.201371E-1,2.397455E-1,6.079297E-2,2.601107E-1,7.61679E-2,2.5216126E-1,1.3218091E-1,-2.9960904E-2,1.9211154E-2,-5.0627615E-2,1.19705796E-1,-3.9958555E-2,-3.0424937E-3,-4.6852488E-2,2.0834339E-1,1.1418486E-2,-1.6456852E-2,1.3117862E-1],"categories":[],"categories_nodes":[],"categories_segments":[],"categories_sizes":[],"default_left":[0,0,0,0,0,0,0,0,0,0,0,0,0,0,0,0,0,0,0,0,0,0,0,0,0,0,0,0,0,0,0,0,0,0,0,0,0,0,0,0,0,0,0,0,0,0,0],"id":10,"left_children":[1,-1,3,5,7,9,11,13,15,17,19,21,23,-1,25,27,29,-1,31,-1,33,35,37,-1,-1,39,-1,41,43,45,-1,-1,-1,-1,-1,-1,-1,-1,-1,-1,-1,-1,-1,-1,-1,-1,-1],"loss_changes":[1.378994E3,0E0,5.9281433E2,5.441101E1,1.6331863E2,1.5302124E1,1.7381613E1,6.5968323E0,3.8020016E1,3.6107178E0,1.5023666E1,4.3092685E0,1.1998768E0,0E0,3.2307549E0,1.734679E1,6.6683655E0,0E0,1.7528076E0,0E0,1.2234741E1,2.695676E0,6.643909E-1,0E0,0E0,3.97685E0,0E0,6.866518E0,5.992755E0,4.0904207E0,0E0,0E0,0E0,0E0,0E0,0E0,0E0,0E0,0E0,0E0,0E0,0E0,0E0,0E0,0E0,0E0,0E0],"parents":[2147483647,0,0,2,2,3,3,4,4,5,5,6,6,7,7,8,8,9,9,10,10,11,11,12,12,14,14,15,15,16,16,18,18,20,20,21,21,22,22,25,25,27,27,28,28,29,29],"right_children":[2,-1,4,6,8,10,12,14,16,18,20,22,24,-1,26,28,30,-1,32,-1,34,36,38,-1,-1,40,-1,42,44,46,-1,-1,-1,-1,-1,-1,-1,-1,-1,-1,-1,-1,-1,-1,-1,-1,-1],"split_conditions":[6.977309E0,-5.6597866E-2,6.925325E1,2.421034E2,1.6055054E4,4.623167E1,5.9260906E1,1.5273758E4,6.78785E1,5.8814716E2,1.6055054E4,7.5919896E-1,1.3433979E4,2.5012538E-1,1.7836068E4,5.2607367E2,8.141325E1,5.065542E-2,3.523924E1,2.5798756E-1,6.959385E1,2.1980844E4,1.6026726E1,5.6160897E-2,2.3619998E-1,2.3132825E2,1.9254468E-1,1.6803879E2,2.1964014E2,1.7497049E2,2.397455E-1,6.079297E-2,2.601107E-1,7.61679E-2,2.5216126E-1,1.3218091E-1,-2.9960904E-2,1.9211154E-2,-5.0627615E-2,1.19705796E-1,-3.9958555E-2,-3.0424937E-3,-4.6852488E-2,2.0834339E-1,1.1418486E-2,-1.6456852E-2,1.3117862E-1],"split_indices":[19,0,10,0,8,10,7,8,12,4,8,5,13,0,13,16,12,0,10,0,12,8,19,0,0,16,0,6,11,6,0,0,0,0,0,0,0,0,0,0,0,0,0,0,0,0,0],"split_type":[0,0,0,0,0,0,0,0,0,0,0,0,0,0,0,0,0,0,0,0,0,0,0,0,0,0,0,0,0,0,0,0,0,0,0,0,0,0,0,0,0,0,0,0,0,0,0],"sum_hessian":[1.7445654E3,1.2418204E3,5.027451E2,2.796136E2,2.231315E2,2.628036E2,1.6810003E1,3.1459723E1,1.9167177E2,2.2479117E2,3.8012405E1,1.2301424E1,4.5085783E0,2.4935228E1,6.5244937E0,1.807362E2,1.0935567E1,1.3790069E0,2.2341217E2,1.4563653E1,2.3448753E1,3.030489E0,9.270935E0,1.2516618E0,3.2569163E0,4.5055995E0,2.0188944E0,1.750324E2,5.703809E0,6.402142E0,4.533425E0,1.1474109E0,2.2226476E2,1.8797293E1,4.6514606E0,1.9319009E0,1.0985881E0,1.0616503E0,8.209286E0,2.152157E0,2.3534424E0,5.01902E1,1.248422E2,2.9753277E0,2.728481E0,2.8549387E0,3.5472035E0],"tree_param":{"num_deleted":"0","num_feature":"20","num_nodes":"47","size_leaf_vector":"1"}},{"base_weights":[1.8047144E-3,5.9556806E-1,-5.5570847E-1,8.0453527E-1,-4.898667E-1,-3.2842156E-1,-5.6219738E-2,1.0569483E0,-3.9381915E-1,-5.1080114E-1,5.9800215E-2,2.0851046E-1,-4.93378E-1,-2.2868378E-2,1.2487247E0,4.2960703E-1,-4.9013E-1,-5.533821E-1,-2.0505483E-1,-2.915002E-1,1.2678389E-1,-1.957456E-1,-5.3534657E-2,-2.774871E-1,6.445291E-1,1.5379251E0,4.322117E-1,1.1655176E0,-1.4948635E-1,-5.246572E-1,5.848502E-1,-2.1374708E-1,-5.6164842E-2,3.1588617E-1,-5.1872194E-2,-4.4484634E-2,1.9171227E-2,-3.8813327E-2,1.9234966E-2,7.124162E-2,-3.5509206E-2,-6.9823475E-3,1.3144295E-1,1.6411656E-1,-2.1654649E-2,7.6353075E-3,1.0654014E-1,2.0186727E-1,2.85814E-2,-4.798002E-2,5.746757E-2,-1.4282315E-2,-5.509759E-2,1.0427888E-1,-3.026461E-2,1.9104665E-2,-3.9936494E-2,-4.0930796E-2,7.818564E-2],"categories":[],"categories_nodes":[],"categories_segments":[],"categories_sizes":[],"default_left":[0,0,0,0,0,0,0,0,0,0,0,0,0,0,0,0,0,0,0,0,0,0,0,0,0,0,0,0,0,0,0,0,0,0,0,0,0,0,0,0,0,0,0,0,0,0,0,0,0,0,0,0,0,0,0,0,0,0,0],"id":11,"left_children":[1,3,5,7,9,11,-1,13,15,17,-1,19,21,23,25,27,29,31,33,35,-1,37,-1,39,41,43,45,47,49,51,53,55,-1,57,-1,-1,-1,-1,-1,-1,-1,-1,-1,-1,-1,-1,-1,-1,-1,-1,-1,-1,-1,-1,-1,-1,-1,-1,-1],"loss_changes":[5.774606E2,1.9200064E2,1.1422424E0,2.1480005E2,3.4254227E0,2.5276816E0,0E0,1.213197E2,1.0047668E1,1.6434402E0,0E0,4.149901E0,1.6052294E-1,1.5356591E1,1.1678815E2,5.9367743E0,4.4460087E0,2.108612E-1,3.119075E0,5.047989E-1,0E0,3.8834587E-1,0E0,5.2732906E0,1.2039193E1,6.681476E1,2.9545662E1,3.977522E0,2.2978334E0,1.012434E0,1.9182253E0,4.0802103E-1,0E0,2.8268824E0,0E0,0E0,0E0,0E0,0E0,0E0,0E0,0E0,0E0,0E0,0E0,0E0,0E0,0E0,0E0,0E0,0E0,0E0,0E0,0E0,0E0,0E0,0E0,0E0,0E0],"parents":[2147483647,0,0,1,1,2,2,3,3,4,4,5,5,7,7,8,8,9,9,11,11,12,12,13,13,14,14,15,15,16,16,17,17,18,18,19,19,21,21,23,23,24,24,25,25,26,26,27,27,28,28,29,29,30,30,31,31,33,33],"right_children":[2,4,6,8,10,12,-1,14,16,18,-1,20,22,24,26,28,30,32,34,36,-1,38,-1,40,42,44,46,48,50,52,54,56,-1,58,-1,-1,-1,-1,-1,-1,-1,-1,-1,-1,-1,-1,-1,-1,-1,-1,-1,-1,-1,-1,-1,-1,-1,-1,-1],"split_conditions":[1.1551881E1,8.7700086E4,1.2565102E1,6.835468E4,3.0467178E5,5.7489057E0,-5.6219738E-2,7.5796436E2,1.1101676E3,2.4762096E1,5.9800215E-2,4.0323788E2,3.876167E1,2.675853E2,1.4208179E3,7.910505E4,4.5750892E-1,3.6493438E4,1.03918086E5,1.08228836E2,1.2678389E-1,9.05632E1,-5.3534657E-2,5.2912693E1,1.8834002E1,1.3570741E0,4.4627676E0,5.881031E0,1.514973E5,4.13926E2,4.8474048E2,4.038616E1,-5.6164842E-2,4.704278E2,-5.1872194E-2,-4.4484634E-2,1.9171227E-2,-3.8813327E-2,1.9234966E-2,7.124162E-2,-3.5509206E-2,-6.9823475E-3,1.3144295E-1,1.6411656E-1,-2.1654649E-2,7.6353075E-3,1.0654014E-1,2.0186727E-1,2.85814E-2,-4.798002E-2,5.746757E-2,-1.4282315E-2,-5.509759E-2,1.0427888E-1,-3.026461E-2,1.9104665E-2,-3.9936494E-2,-4.0930796E-2,7.818564E-2],"split_indices":[0,8,0,13,4,19,0,11,11,12,0,7,10,6,11,13,14,9,8,10,0,2,0,15,12,5,0,19,3,6,7,10,0,15,0,0,0,0,0,0,0,0,0,0,0,0,0,0,0,0,0,0,0,0,0,0,0,0,0],"split_type":[0,0,0,0,0,0,0,0,0,0,0,0,0,0,0,0,0,0,0,0,0,0,0,0,0,0,0,0,0,0,0,0,0,0,0,0,0,0,0,0,0,0,0,0,0,0,0,0,0,0,0,0,0,0,0,0,0,0,0],"sum_hessian":[1.7424312E3,8.437506E2,8.9868054E2,7.0775323E2,1.3599739E2,2.6377174E1,8.7230334E2,5.847117E2,1.2304157E2,1.3395018E2,2.0472136E0,6.1370587E0,2.0240116E1,8.831663E1,4.9639502E2,1.2521996E1,1.1051958E2,1.16864624E2,1.7085562E1,4.6615834E0,1.4754753E0,3.201295E0,1.7038822E1,6.43505E1,2.3966125E1,3.6590997E2,1.3048505E2,5.0684114E0,7.4535847E0,1.0757629E2,2.9432952E0,3.414922E0,1.134497E2,6.418533E0,1.0667029E1,3.598885E0,1.0626981E0,2.140234E0,1.0610607E0,4.083441E0,6.026706E1,1.20317545E1,1.193437E1,3.456359E2,2.0274094E1,8.425406E1,4.623099E1,1.9157535E0,3.1526577E0,5.3504915E0,2.1030927E0,7.3512E0,1.0022508E2,1.8260796E0,1.1172156E0,1.064413E0,2.3505092E0,2.5584273E0,3.8601055E0],"tree_param":{"num_deleted":"0","num_feature":"20","num_nodes":"59","size_leaf_vector":"1"}},{"base_weights":[6.2167E-4,8.8218313E-1,-5.29458E-1,1.2664666E0,-3.7652916E-1,-1.580631E-1,-5.647216E-1,7.4940264E-1,1.9836895E0,2.1262932E-1,-5.3767765E-1,-2.920552E-1,1.2865206E0,-3.5723454E-1,-5.657171E-2,2.8368148E-1,1.2573177E0,2.1131406E0,-5.155461E-2,-2.2060461E-1,1.2114872E0,-5.5397296E-1,5.3825647E-2,-4.9400645E-1,1.7566428E-1,-6.6235363E-3,1.7480859E0,-4.7869205E-2,1.978228E-2,4.709436E-2,1.3184193E0,1.7605158E0,-5.4799248E-2,2.22966E0,1.2937476E-1,-3.274008E-1,8.437336E-2,3.4730712E-1,1.9664159E0,-5.621868E-2,1.659914E-2,-5.244492E-1,2.2622344E-1,3.7451765E-1,-4.832262E-2,1.6981166E-2,2.0585756E0,4.4794783E-2,-3.5660766E-2,1.533721E-1,-2.137076E-2,1.1742685E-1,2.2671011E-1,1.2817663E-1,2.4031238E-1,-4.905043E-2,8.5976236E-2,-4.400745E-2,2.9605085E-2,9.657895E-2,-4.065085E-2,2.3339756E-1,5.1512916E-2,-5.5685174E-2,-5.1397807E-3,-2.9708331E-2,6.3130826E-2,1.1343735E-1,-1.6057406E-2,2.3050204E-1,6.319244E-2],"categories":[],"categories_nodes":[],"categories_segments":[],"categories_sizes":[],"default_left":[0,0,0,0,0,0,0,0,0,0,0,0,0,0,0,0,0,0,0,0,0,0,0,0,0,0,0,0,0,0,0,0,0,0,0,0,0,0,0,0,0,0,0,0,0,0,0,0,0,0,0,0,0,0,0,0,0,0,0,0,0,0,0,0,0,0,0,0,0,0,0],"id":12,"left_children":[1,3,5,7,9,11,13,15,17,19,21,23,25,27,-1,29,31,33,-1,35,37,39,-1,41,43,-1,45,-1,-1,47,49,51,-1,53,55,57,-1,59,61,-1,-1,63,65,67,-1,-1,69,-1,-1,-1,-1,-1,-1,-1,-1,-1,-1,-1,-1,-1,-1,-1,-1,-1,-1,-1,-1,-1,-1,-1,-1],"loss_changes":[8.158509E2,3.1758832E2,1.4190094E1,1.8485944E2,1.4745701E1,1.8945107E1,3.5095215E-3,6.909148E1,6.899542E1,1.490057E1,2.4247665E0,8.4562435E0,5.3157234E0,5.980524E-1,0E0,3.7747845E1,1.2827455E2,4.5883728E1,0E0,3.0533214E0,6.091424E0,8.028183E-1,0E0,1.4812851E0,3.7786703E0,0E0,2.711172E0,0E0,0E0,2.0670086E1,9.796696E0,2.995636E1,0E0,2.793164E1,5.919677E0,1.7406304E0,0E0,3.2160885E0,1.6397114E0,0E0,0E0,8.899727E-1,8.699231E-1,8.987375E0,0E0,0E0,3.4680557E-1,0E0,0E0,0E0,0E0,0E0,0E0,0E0,0E0,0E0,0E0,0E0,0E0,0E0,0E0,0E0,0E0,0E0,0E0,0E0,0E0,0E0,0E0,0E0,0E0],"parents":[2147483647,0,0,1,1,2,2,3,3,4,4,5,5,6,6,7,7,8,8,9,9,10,10,11,11,12,12,13,13,15,15,16,16,17,17,19,19,20,20,21,21,23,23,24,24,26,26,29,29,30,30,31,31,33,33,34,34,35,35,37,37,38,38,41,41,42,42,43,43,46,46],"right_children":[2,4,6,8,10,12,14,16,18,20,22,24,26,28,-1,30,32,34,-1,36,38,40,-1,42,44,-1,46,-1,-1,48,50,52,-1,54,56,58,-1,60,62,-1,-1,64,66,68,-1,-1,70,-1,-1,-1,-1,-1,-1,-1,-1,-1,-1,-1,-1,-1,-1,-1,-1,-1,-1,-1,-1,-1,-1,-1,-1],"split_conditions":[6.6301217E0,5.840659E4,8.493383E0,4.2181567E2,6.841643E4,5.236863E2,8.720481E0,3.9669773E4,1.9245825E5,5.591238E2,4.8731388E1,3.9100133E4,2.7639757E1,1.514973E5,-5.657171E-2,6.3479474E2,1.9245825E5,9.3617064E-1,-5.155461E-2,5.6927795E2,3.466644E2,1.5875829E3,5.3825647E-2,4.397986E1,6.732453E5,-6.6235363E-3,3.8253372E2,-4.7869205E-2,1.978228E-2,5.8985174E-1,8.6238074E-1,5.154541E2,-5.4799248E-2,1.351474E3,2.6543227E4,3.5980479E3,8.437336E-2,2.754918E2,3.893094E0,-5.621868E-2,1.659914E-2,1.424044E3,2.9634946E2,2.9665582E4,-4.832262E-2,1.6981166E-2,6.032144E0,4.4794783E-2,-3.5660766E-2,1.533721E-1,-2.137076E-2,1.1742685E-1,2.2671011E-1,1.2817663E-1,2.4031238E-1,-4.905043E-2,8.5976236E-2,-4.400745E-2,2.9605085E-2,9.657895E-2,-4.065085E-2,2.3339756E-1,5.1512916E-2,-5.5685174E-2,-5.1397807E-3,-2.9708331E-2,6.3130826E-2,1.1343735E-1,-1.6057406E-2,2.3050204E-1,6.319244E-2],"split_indices":[0,8,0,7,8,7,0,13,13,6,12,13,1,3,0,6,13,5,0,7,7,11,0,12,4,0,6,0,0,5,5,6,0,11,13,15,0,7,0,0,0,11,7,8,0,0,19,0,0,0,0,0,0,0,0,0,0,0,0,0,0,0,0,0,0,0,0,0,0,0,0],"split_type":[0,0,0,0,0,0,0,0,0,0,0,0,0,0,0,0,0,0,0,0,0,0,0,0,0,0,0,0,0,0,0,0,0,0,0,0,0,0,0,0,0,0,0,0,0,0,0,0,0,0,0,0,0,0,0,0,0,0,0,0,0,0,0,0,0,0,0,0,0,0,0],"sum_hessian":[1.7438911E3,6.5459204E2,1.0892991E3,5.0148352E2,1.5310855E2,9.4934616E1,9.9436444E2,2.9259167E2,2.0889185E2,3.2815544E1,1.2029301E2,8.7606514E1,7.3280983E0,6.466433E0,9.87898E2,1.5344879E2,1.3914288E2,1.9875174E2,1.0140104E1,2.343168E1,9.383863E0,1.18976204E2,1.3168018E0,6.114794E1,2.6458574E1,2.0821698E0,5.245929E0,5.418368E0,1.0480651E0,1.25743706E2,2.7705091E1,1.0883255E2,3.031033E1,1.876083E2,1.1143426E1,2.1924189E1,1.5074929E0,5.056105E0,4.327759E0,1.1785083E2,1.1253695E0,5.8928955E1,2.2189841E0,2.065614E1,5.8024364E0,1.1166611E0,4.1292677E0,6.3039455E1,6.2704247E1,2.429062E1,3.4144716E0,5.198767E1,5.6844883E1,3.0319036E1,1.5728928E2,6.205369E0,4.9380565E0,1.8817514E1,3.106675E0,2.6228976E0,2.4332075E0,2.967887E0,1.3598719E0,5.4985474E1,3.9434836E0,1.0845405E0,1.1344436E0,8.07264E0,1.2583498E1,2.9960358E0,1.1332315E0],"tree_param":{"num_deleted":"0","num_feature":"20","num_nodes":"71","size_leaf_vector":"1"}},{"base_weights":[-2.2668736E-3,-5.355544E-1,2.6769276E0,-5.619149E-1,2.5358853E-1,2.7008655E0,-3.86932E-2,-5.646575E-1,1.2676701E-1,1.6519446E-2,2.7102512E-1,-5.65343E-1,5.751609E-4,-5.6602985E-2,-1.0075944E-1,1.9052511E-2,-3.2009717E-2],"categories":[],"categories_nodes":[],"categories_segments":[],"categories_sizes":[],"default_left":[0,0,0,0,0,0,0,0,0,0,0,0,0,0,0,0,0],"id":13,"left_children":[1,3,5,7,-1,9,-1,11,-1,-1,-1,13,-1,-1,15,-1,-1],"loss_changes":[2.5007717E3,1.1961105E2,2.235498E1,7.9821777E0,0E0,6.416504E0,0E0,5.689087E-1,0E0,0E0,0E0,4.0405273E-1,0E0,0E0,2.7499074E-1,0E0,0E0],"parents":[2147483647,0,0,1,1,2,2,3,3,5,5,7,7,11,11,14,14],"right_children":[2,4,6,8,-1,10,-1,12,-1,-1,-1,14,-1,-1,16,-1,-1],"split_conditions":[1.5059964E2,1.1179035E6,5.998038E3,6.854799E7,2.5358853E-1,2.872355E2,-3.86932E-2,1.0022727E3,1.2676701E-1,1.6519446E-2,2.7102512E-1,5.114317E7,5.751609E-4,-5.6602985E-2,1.6897589E2,1.9052511E-2,-3.2009717E-2],"split_indices":[12,13,8,4,0,10,0,10,0,0,0,4,0,0,1,0,0],"split_type":[0,0,0,0,0,0,0,0,0,0,0,0,0,0,0,0,0],"sum_hessian":[1.74828E3,1.4587244E3,2.8955566E2,1.4471215E3,1.1602806E1,2.8742847E2,2.1272023E0,1.4456459E3,1.4756771E0,1.1285695E0,2.862999E2,1.4439194E3,1.7263906E0,1.4415698E3,2.349589E0,1.0656923E0,1.2838969E0],"tree_param":{"num_deleted":"0","num_feature":"20","num_nodes":"17","size_leaf_vector":"1"}},{"base_weights":[-1.0836788E-3,1.7409086E0,-5.451802E-1,-3.4541017E-1,2.1238163E0,-5.532977E-1,1.0659938E0,-4.990389E-1,2.647021E-1,1.851807E-1,2.3132374E0,-2.5737754E-1,-5.6597542E-2,1.884403E0,-3.9869282E-2,-5.3490394E-1,3.7287295E-2,-4.1543898E-1,1.74741E0,-4.3374013E-2,1.8436035E0,2.4289489E0,-5.25235E-2,-5.4558177E-2,1.5806034E-2,2.2014976E-1,5.6299787E-2,-5.543067E-2,-1.5485881E-1,-3.8871683E-2,6.621936E-2,-5.062681E-2,1.90924E-2,5.6451183E-2,2.0246732E-1,-3.746747E-1,4.6566507E-1,6.155287E-2,2.1336427E-1,2.4853683E0,-4.8311852E-2,-5.2538313E-2,4.5338416E-1,1.8856125E-2,-3.597456E-2,-4.5931924E-2,-5.93818E-3,1.18566774E-1,-2.1042323E-2,2.5203955E-1,-2.4110446E-2,8.531661E-2,-4.6945147E-2],"categories":[],"categories_nodes":[],"categories_segments":[],"categories_sizes":[],"default_left":[0,0,0,0,0,0,0,0,0,0,0,0,0,0,0,0,0,0,0,0,0,0,0,0,0,0,0,0,0,0,0,0,0,0,0,0,0,0,0,0,0,0,0,0,0,0,0,0,0,0,0,0,0],"id":14,"left_children":[1,3,5,7,9,11,13,15,17,19,21,23,-1,25,-1,27,29,31,33,35,37,39,-1,-1,41,-1,-1,-1,43,-1,-1,-1,-1,-1,-1,45,47,-1,-1,49,-1,-1,51,-1,-1,-1,-1,-1,-1,-1,-1,-1,-1],"loss_changes":[1.6572357E3,3.331786E2,1.8015106E1,6.2613935E0,1.2874194E2,4.8301697E0,9.167118E0,1.0314407E0,1.4649942E1,1.235973E1,1.0649451E2,4.4429665E0,0E0,7.2097015E-1,0E0,2.7809525E-1,1.3837212E0,6.624658E-1,3.4408474E-1,5.1410694E0,9.2555046E-2,5.1802002E1,0E0,0E0,7.3155994E0,0E0,0E0,0E0,3.3415622E-1,0E0,0E0,0E0,0E0,0E0,0E0,4.6361017E-1,6.118377E0,0E0,0E0,2.9477173E1,0E0,0E0,6.695134E0,0E0,0E0,0E0,0E0,0E0,0E0,0E0,0E0,0E0,0E0],"parents":[2147483647,0,0,1,1,2,2,3,3,4,4,5,5,6,6,7,7,8,8,9,9,10,10,11,11,13,13,15,15,16,16,17,17,18,18,19,19,20,20,21,21,24,24,28,28,35,35,36,36,39,39,42,42],"right_children":[2,4,6,8,10,12,14,16,18,20,22,24,-1,26,-1,28,30,32,34,36,38,40,-1,-1,42,-1,-1,-1,44,-1,-1,-1,-1,-1,-1,46,48,-1,-1,50,-1,-1,52,-1,-1,-1,-1,-1,-1,-1,-1,-1,-1],"split_conditions":[5.7586666E1,1.5556444E4,2.421034E2,1.4518229E4,1.0647393E2,7.442174E1,7.284395E1,1.7972043E4,1.0582787E2,2.421034E2,2.6732918E4,1.6055054E4,-5.6597542E-2,2.0750111E6,-3.9869282E-2,1.5127473E0,2.7428723E2,2.1578293E4,2.3405301E2,8.985025E1,1.6488249E1,8.141325E1,-5.25235E-2,-5.4558177E-2,1.3556093E2,2.2014976E-1,5.6299787E-2,-5.543067E-2,2.26761E1,-3.8871683E-2,6.621936E-2,-5.062681E-2,1.90924E-2,5.6451183E-2,2.0246732E-1,2.800762E4,1.5019234E4,6.155287E-2,2.1336427E-1,2.3704016E4,-4.8311852E-2,-5.2538313E-2,3.879897E2,1.8856125E-2,-3.597456E-2,-4.5931924E-2,-5.93818E-3,1.18566774E-1,-2.1042323E-2,2.5203955E-1,-2.4110446E-2,8.531661E-2,-4.6945147E-2],"split_indices":[7,8,0,8,6,7,7,9,10,0,8,8,0,4,0,5,16,9,16,6,19,12,0,0,6,0,0,0,7,0,0,0,0,0,0,9,13,0,0,13,0,0,15,0,0,0,0,0,0,0,0,0,0],"split_type":[0,0,0,0,0,0,0,0,0,0,0,0,0,0,0,0,0,0,0,0,0,0,0,0,0,0,0,0,0,0,0,0,0,0,0,0,0,0,0,0,0,0,0,0,0,0,0,0,0,0,0,0,0],"sum_hessian":[1.7464845E3,4.1514542E2,1.3313391E3,6.439257E1,3.5075284E2,1.3253184E3,6.020713E0,5.158525E1,1.2807321E1,3.1396988E1,3.1935583E2,5.532152E1,1.2699968E3,3.6786635E0,2.3420494E0,4.8354366E1,3.230886E0,9.273317E0,3.5340035E0,2.845001E1,2.9469776E0,3.0698572E2,1.2370114E1,2.6435438E1,2.8886084E1,2.4296079E0,1.2490555E0,4.556935E1,2.7850165E0,2.1459398E0,1.0849462E0,8.208773E0,1.0645447E0,1.2475495E0,2.286454E0,1.7393599E1,1.1056413E1,1.1595353E0,1.7874422E0,3.0129486E2,5.690879E0,1.282441E1,1.6061672E1,1.0704563E0,1.7145602E0,1.3352217E1,4.041381E0,4.989311E0,6.067102E0,2.9754782E2,3.747032E0,1.1259455E1,4.802218E0],"tree_param":{"num_deleted":"0","num_feature":"20","num_nodes":"53","size_leaf_vector":"1"}},{"base_weights":[4.170494E-4,-3.977775E-1,1.4591665E0,1.8725602E-1,-5.502553E-1,1.9957031E0,-3.4341133E-1,1.0994117E0,-5.3229684E-1,-2.593324E-1,-5.6100017E-1,2.1503E0,4.7873715E-1,3.7676787E-1,-5.2992475E-1,1.593432E0,1.5937859E-1,-2.4748734E-1,-5.6293674E-2,1.7218211E-1,-5.439523E-2,6.6801116E-2,-5.6288477E-2,2.274287E0,1.1082572E0,9.4251037E-1,-1.9781625E-1,-1.362615E-1,1.3021194E0,1.1057557E-2,-5.4384404E-1,-4.7131833E-2,1.7319996E0,-2.3982129E-1,8.4638965E-1,-5.188436E-2,2.2274083E-1,1.2277652E0,-1.0904851E-1,-3.7582044E-2,6.5449506E-2,2.3099787E0,-2.1596496E-1,1.3968812E0,-6.1791994E-2,-2.433919E-1,1.2974846E0,-4.8896648E-2,1.5234798E-1,6.116091E-2,-3.3341086E-1,2.0055369E-1,1.839705E-1,-5.5813998E-2,-1.03593424E-1,1.4258973E-1,2.3008192E-1,-3.524701E-2,4.735815E-2,1.4699297E-1,-1.2529826E-4,-2.831406E-2,1.2267494E-1,4.0317453E-2,1.6948383E-1,6.899266E-2,-2.8170487E-2,2.3464179E-1,2.922957E-2,-4.103737E-2,1.9804724E-2,1.6918331E-1,8.345261E-3,5.772495E-2,-4.595943E-2,-4.2105045E-2,1.8054822E-2,3.4149107E-2,1.8597688E-1,1.1457678E-1,-4.4729203E-2,-4.999329E-2,8.946993E-3,-3.2046493E-2,6.9043696E-2,1.905652E-2,-3.2264277E-2],"categories":[],"categories_nodes":[],"categories_segments":[],"categories_sizes":[],"default_left":[0,0,0,0,0,0,0,0,0,0,0,0,0,0,0,0,0,0,0,0,0,0,0,0,0,0,0,0,0,0,0,0,0,0,0,0,0,0,0,0,0,0,0,0,0,0,0,0,0,0,0,0,0,0,0,0,0,0,0,0,0,0,0,0,0,0,0,0,0,0,0,0,0,0,0,0,0,0,0,0,0,0,0,0,0,0,0],"id":15,"left_children":[1,3,5,7,9,11,13,15,17,19,21,23,25,27,29,31,33,35,-1,37,-1,39,-1,41,43,45,47,49,51,-1,53,-1,55,57,59,-1,61,63,65,-1,-1,67,69,71,73,75,77,-1,79,-1,81,83,-1,-1,85,-1,-1,-1,-1,-1,-1,-1,-1,-1,-1,-1,-1,-1,-1,-1,-1,-1,-1,-1,-1,-1,-1,-1,-1,-1,-1,-1,-1,-1,-1,-1,-1],"loss_changes":[1.0141763E3,1.2245389E2,3.6278424E2,1.8719331E2,3.2563171E0,6.666821E1,1.1849652E1,5.8122147E1,1.2535362E0,5.0827003E0,1.2782898E0,3.128894E1,8.966982E0,8.924705E0,6.7801476E-1,2.4359695E1,1.238401E1,2.321466E0,0E0,5.1520944E0,0E0,1.2948897E0,0E0,2.1199951E1,1.01417465E1,7.3780956E0,1.31908E0,2.085139E0,3.5789385E0,0E0,3.7015915E-1,0E0,1.0183258E1,2.487111E0,8.746003E0,0E0,3.9156358E0,7.1774864E-1,2.1623783E0,0E0,0E0,1.6202515E1,4.1976354E-1,9.127907E0,2.0064785E0,4.3052483E-1,6.390337E0,0E0,4.2681355E0,0E0,8.0134225E-1,1.0657898E0,0E0,0E0,2.7841094E-1,0E0,0E0,0E0,0E0,0E0,0E0,0E0,0E0,0E0,0E0,0E0,0E0,0E0,0E0,0E0,0E0,0E0,0E0,0E0,0E0,0E0,0E0,0E0,0E0,0E0,0E0,0E0,0E0,0E0,0E0,0E0,0E0],"parents":[2147483647,0,0,1,1,2,2,3,3,4,4,5,5,6,6,7,7,8,8,9,9,10,10,11,11,12,12,13,13,14,14,15,15,16,16,17,17,19,19,21,21,23,23,24,24,25,25,26,26,27,27,28,28,30,30,32,32,33,33,34,34,36,36,37,37,38,38,41,41,42,42,43,43,44,44,45,45,46,46,48,48,50,50,51,51,54,54],"right_children":[2,4,6,8,10,12,14,16,18,20,22,24,26,28,30,32,34,36,-1,38,-1,40,-1,42,44,46,48,50,52,-1,54,-1,56,58,60,-1,62,64,66,-1,-1,68,70,72,74,76,78,-1,80,-1,82,84,-1,-1,86,-1,-1,-1,-1,-1,-1,-1,-1,-1,-1,-1,-1,-1,-1,-1,-1,-1,-1,-1,-1,-1,-1,-1,-1,-1,-1,-1,-1,-1,-1,-1,-1],"split_conditions":[6.601856E4,2.1600142E1,1.9100557E4,1.9589166E4,2.4762096E1,1.3195414E3,2.3024162E4,1.0664628E3,2.339595E4,7.4364404E2,9.765021E1,2.2690584E1,6.6383234E2,1.1139692E1,3.6016056E1,8.68003E-1,1.4819237E4,2.2235975E4,-5.6293674E-2,5.7103357E0,-5.439523E-2,5.8858776E0,-5.6288477E-2,4.7119562E2,1.050289E3,4.8562775E2,1.7609018E4,9.547129E-1,9.9095833E-1,1.1057557E-2,1.8594694E1,-4.7131833E-2,1.2565102E1,6.2399105E4,1.297009E3,-5.188436E-2,9.984809E-1,9.965871E0,3.8716953E1,-3.7582044E-2,6.5449506E-2,7.3383813E2,1.2026641E3,3.0912664E1,7.641443E1,5.964909E1,8.9544984E4,-4.8896648E-2,9.327832E3,6.116091E-2,5.259175E2,1.3821098E1,1.839705E-1,-5.5813998E-2,3.2395963E2,1.4258973E-1,2.3008192E-1,-3.524701E-2,4.735815E-2,1.4699297E-1,-1.2529826E-4,-2.831406E-2,1.2267494E-1,4.0317453E-2,1.6948383E-1,6.899266E-2,-2.8170487E-2,2.3464179E-1,2.922957E-2,-4.103737E-2,1.9804724E-2,1.6918331E-1,8.345261E-3,5.772495E-2,-4.595943E-2,-4.2105045E-2,1.8054822E-2,3.4149107E-2,1.8597688E-1,1.1457678E-1,-4.4729203E-2,-4.999329E-2,8.946993E-3,-3.2046493E-2,6.9043696E-2,1.905652E-2,-3.2264277E-2],"split_indices":[8,12,13,13,12,11,13,11,13,15,9,12,6,0,10,18,3,13,0,19,0,19,0,7,11,13,3,18,18,0,0,0,0,9,11,0,18,0,10,0,0,6,11,12,2,1,8,0,13,0,6,0,0,0,6,0,0,0,0,0,0,0,0,0,0,0,0,0,0,0,0,0,0,0,0,0,0,0,0,0,0,0,0,0,0,0,0],"split_type":[0,0,0,0,0,0,0,0,0,0,0,0,0,0,0,0,0,0,0,0,0,0,0,0,0,0,0,0,0,0,0,0,0,0,0,0,0,0,0,0,0,0,0,0,0,0,0,0,0,0,0,0,0,0,0,0,0,0,0,0,0,0,0,0,0,0,0,0,0,0,0,0,0,0,0,0,0,0,0,0,0,0,0,0,0,0,0],"sum_hessian":[1.7439734E3,1.3705751E3,3.733983E2,2.8331433E2,1.0872607E3,2.8766714E2,8.573113E1,1.24703514E2,1.5861084E2,3.9621544E1,1.0476393E3,2.6068292E2,2.698423E1,1.7425697E1,6.8305435E1,8.12885E1,4.3415012E1,1.6287693E1,1.4232314E2,1.5904163E1,2.371738E1,3.0323424E0,1.0446069E3,2.3190707E2,2.8775837E1,1.5776458E1,1.1207771E1,1.1759045E1,5.6666527E0,1.3051368E0,6.70003E1,4.96125E0,7.632725E1,2.7870998E1,1.5544015E1,1.0262239E1,6.025454E0,2.6377673E0,1.32663965E1,1.9352934E0,1.0970491E0,2.2870158E2,3.2054958E0,2.2926527E1,5.8493094E0,3.7068634E0,1.2069594E1,5.903124E0,5.304648E0,2.014591E0,9.744454E0,2.3087864E0,3.357866E0,6.463372E1,2.3665805E0,5.190309E1,2.4424156E1,2.4507162E1,3.3638356E0,8.532918E0,7.011096E0,4.484085E0,1.5413687E0,1.6275734E0,1.0101938E0,1.8250312E0,1.1441365E1,2.2448448E2,4.2171054E0,2.187224E0,1.0182718E0,1.8486889E1,4.439638E0,2.0711138E0,3.7781956E0,2.61699E0,1.0898732E0,5.0651584E0,7.004436E0,1.6538934E0,3.6507545E0,6.8606567E0,2.8837976E0,1.2864298E0,1.0223566E0,1.0656149E0,1.3009655E0],"tree_param":{"num_deleted":"0","num_feature":"20","num_nodes":"87","size_leaf_vector":"1"}},{"base_weights":[5.135062E-3,-3.3948493E-1,8.278331E-1,1.7772402E-1,-5.2993625E-1,4.8308045E-1,1.2054374E0,-4.9939174E-2,1.2008677E0,-5.375642E-1,1.4409286E-1,1.7269875E-1,1.0790793E0,4.126578E-1,1.6768214E0,-2.7026045E-1,4.0824184E-1,1.6711457E0,-3.3152556E-1,3.6699027E-1,-5.4191136E-1,9.5776856E-1,5.1666748E-2,7.7377534E-1,1.6191471E0,9.9471815E-2,1.6670526E0,1.7043272E0,-3.7268426E-2,1.3294088E0,-3.2818165E-1,6.962141E-1,-5.4238368E-2,1.7337188E0,-3.149272E-2,-4.56636E-1,6.18204E-2,-4.107433E-2,1.4975177E-1,-1.6812641E-2,-5.4844433E-1,1.6283567E0,4.5735905E-1,1.7532478E-1,-4.1989833E-3,1.4682252E0,5.175837E-1,1.744777E0,-8.360703E-2,1.9867787E0,-8.827363E-2,1.797829E0,-2.9422093E-2,1.4634621E0,2.0018785E0,2.4602875E-2,1.7905329E-1,1.04118824E-1,-3.834895E-2,8.9207195E-2,-1.5729804E-2,1.0829618E-2,1.7789537E-1,1.8429216E-2,-5.238561E-2,-5.11168E-2,1.731886E-1,3.8812906E-2,-5.5180687E-2,1.7816721E-1,1.8480016E-2,1.6542993E-1,9.896418E-3,-4.6230922E-3,1.5309103E-1,7.8077056E-2,2.2439699E-1,1.2189781E-2,1.1399913E-1,1.8657339E-1,1.953484E-2,2.042683E-2,-3.1141503E-2,7.349852E-2,2.257464E-1,1.6329229E-1,-2.2521803E-2,1.9078255E-1,1.3885324E-2,1.0066084E-1,1.7647642E-1,1.599304E-1,2.1708596E-1],"categories":[],"categories_nodes":[],"categories_segments":[],"categories_sizes":[],"default_left":[0,0,0,0,0,0,0,0,0,0,0,0,0,0,0,0,0,0,0,0,0,0,0,0,0,0,0,0,0,0,0,0,0,0,0,0,0,0,0,0,0,0,0,0,0,0,0,0,0,0,0,0,0,0,0,0,0,0,0,0,0,0,0,0,0,0,0,0,0,0,0,0,0,0,0,0,0,0,0,0,0,0,0,0,0,0,0,0,0,0,0,0,0],"id":16,"left_children":[1,3,5,7,9,11,13,15,17,19,-1,21,23,25,27,29,31,33,35,37,39,41,43,45,47,49,51,53,-1,55,57,59,-1,61,-1,63,-1,-1,-1,65,67,69,71,-1,73,75,77,79,81,83,85,87,-1,89,91,-1,-1,-1,-1,-1,-1,-1,-1,-1,-1,-1,-1,-1,-1,-1,-1,-1,-1,-1,-1,-1,-1,-1,-1,-1,-1,-1,-1,-1,-1,-1,-1,-1,-1,-1,-1,-1,-1],"loss_changes":[4.894838E2,1.1995091E2,6.576929E1,7.65127E1,1.4147949E1,4.9409492E1,8.996359E1,2.7309383E1,4.3634583E1,3.6862488E0,0E0,1.6814888E1,1.3853775E1,3.5891823E1,9.192932E0,1.735033E1,2.4437752E1,6.251175E0,2.0494409E0,4.8688774E0,3.019928E0,7.191599E0,1.47259445E1,9.994247E0,7.028183E0,2.6576378E1,5.2159653E0,7.8188477E0,0E0,2.845067E0,1.3802622E1,1.1489861E1,0E0,3.0909576E0,0E0,6.874881E-1,0E0,0E0,0E0,1.1157556E1,2.960785E0,1.8211136E0,6.242767E0,0E0,9.808052E0,6.6448784E0,1.1116196E1,5.2594376E0,2.7116698E-1,6.3947487E-1,1.6566818E1,2.886921E0,0E0,1.01440735E1,9.0734863E-1,0E0,0E0,0E0,0E0,0E0,0E0,0E0,0E0,0E0,0E0,0E0,0E0,0E0,0E0,0E0,0E0,0E0,0E0,0E0,0E0,0E0,0E0,0E0,0E0,0E0,0E0,0E0,0E0,0E0,0E0,0E0,0E0,0E0,0E0,0E0,0E0,0E0,0E0],"parents":[2147483647,0,0,1,1,2,2,3,3,4,4,5,5,6,6,7,7,8,8,9,9,11,11,12,12,13,13,14,14,15,15,16,16,17,17,18,18,19,19,20,20,21,21,22,22,23,23,24,24,25,25,26,26,27,27,29,29,30,30,31,31,33,33,35,35,39,39,40,40,41,41,42,42,44,44,45,45,46,46,47,47,48,48,49,49,50,50,51,51,53,53,54,54],"right_children":[2,4,6,8,10,12,14,16,18,20,-1,22,24,26,28,30,32,34,36,38,40,42,44,46,48,50,52,54,-1,56,58,60,-1,62,-1,64,-1,-1,-1,66,68,70,72,-1,74,76,78,80,82,84,86,88,-1,90,92,-1,-1,-1,-1,-1,-1,-1,-1,-1,-1,-1,-1,-1,-1,-1,-1,-1,-1,-1,-1,-1,-1,-1,-1,-1,-1,-1,-1,-1,-1,-1,-1,-1,-1,-1,-1,-1,-1],"split_conditions":[4.924688E4,3.0912664E1,1.533843E4,9.923686E-1,7.035262E-1,1.0593705E3,6.841643E4,6.756073E0,1.6355404E1,4.8317474E2,1.4409286E-1,1.0639638E2,4.9875298E-1,9.292309E-1,4.647645E1,8.712882E1,2.4099579E1,5.7873223E4,3.700322E2,6.485242E2,4.2810818E1,5.8814716E2,1.5621549E1,4.8562775E2,1.7759888E1,1.1534182E2,6.2908023E4,4.5750892E-1,-3.7268426E-2,8.199614E0,9.188856E-2,4.4272734E4,-5.4238368E-2,3.4067694E2,-3.149272E-2,3.8949116E3,6.18204E-2,-4.107433E-2,1.4975177E-1,2.0887342E1,9.765021E1,6.4140635E0,1.9451764E0,1.7532478E-1,5.860612E0,8.6347375E4,8.917349E1,2.9476826E3,3.913E1,1.698468E4,1.57379E2,1.3336246E2,-2.9422093E-2,4.038616E1,2.3024162E4,2.4602875E-2,1.7905329E-1,1.04118824E-1,-3.834895E-2,8.9207195E-2,-1.5729804E-2,1.0829618E-2,1.7789537E-1,1.8429216E-2,-5.238561E-2,-5.11168E-2,1.731886E-1,3.8812906E-2,-5.5180687E-2,1.7816721E-1,1.8480016E-2,1.6542993E-1,9.896418E-3,-4.6230922E-3,1.5309103E-1,7.8077056E-2,2.2439699E-1,1.2189781E-2,1.1399913E-1,1.8657339E-1,1.953484E-2,2.042683E-2,-3.1141503E-2,7.349852E-2,2.257464E-1,1.6329229E-1,-2.2521803E-2,1.9078255E-1,1.3885324E-2,1.0066084E-1,1.7647642E-1,1.599304E-1,2.1708596E-1],"split_indices":[8,12,13,5,14,11,8,0,0,4,0,13,14,5,12,6,0,13,7,3,6,4,7,13,0,6,13,14,0,12,14,13,0,11,0,9,0,0,0,17,9,19,1,0,5,9,2,15,10,13,7,2,0,10,13,0,0,0,0,0,0,0,0,0,0,0,0,0,0,0,0,0,0,0,0,0,0,0,0,0,0,0,0,0,0,0,0,0,0,0,0,0,0],"split_type":[0,0,0,0,0,0,0,0,0,0,0,0,0,0,0,0,0,0,0,0,0,0,0,0,0,0,0,0,0,0,0,0,0,0,0,0,0,0,0,0,0,0,0,0,0,0,0,0,0,0,0,0,0,0,0,0,0,0,0,0,0,0,0,0,0,0,0,0,0,0,0,0,0,0,0,0,0,0,0,0,0,0,0,0,0,0,0,0,0,0,0,0,0],"sum_hessian":[1.724472E3,1.215781E3,5.0869113E2,3.272189E2,8.885621E2,2.671043E2,2.4158682E2,2.6843884E2,5.8780056E1,8.858607E2,2.7013574E0,1.7648499E2,9.061933E1,9.078269E1,1.5080412E2,1.8154913E2,8.688972E1,4.4907726E1,1.387233E1,3.8379717E0,8.820227E2,2.265043E1,1.5383456E2,5.9446537E1,3.1172792E1,7.350894E1,1.7273752E1,1.489732E2,1.8309157E0,5.5768027E0,1.7597234E2,6.689338E1,1.9996334E1,4.365926E1,1.2484639E0,1.2716363E1,1.1559674E0,2.650956E0,1.1870157E0,1.0882622E1,8.711401E2,8.716109E0,1.393432E1,3.9242713E0,1.4991028E2,1.4745486E1,4.4701054E1,2.9007898E1,2.1648953E0,5.7839193E0,6.772502E1,1.6272076E1,1.0016749E0,8.559952E1,6.337369E1,2.12285E0,3.4539526E0,6.1394725E0,1.6983286E2,5.4371433E1,1.2521946E1,1.2740227E0,4.238524E1,1.0417635E0,1.16746E1,9.035874E0,1.8467464E0,2.7071035E0,8.68433E2,7.667541E0,1.0485685E0,2.3776772E0,1.15566435E1,1.468591E2,3.05118E0,8.8813925E0,5.864094E0,2.8058897E1,1.6642157E1,2.6718E1,2.2898972E0,1.0020105E0,1.162885E0,1.6888849E0,4.0950346E0,4.1862187E0,6.3538807E1,1.5119588E1,1.1524885E0,3.57436E1,4.9855923E1,2.1830313E1,4.1543377E1],"tree_param":{"num_deleted":"0","num_feature":"20","num_nodes":"93","size_leaf_vector":"1"}},{"base_weights":[-3.7208954E-3,-5.368839E-1,1.1738284E0,-5.531149E-1,5.8918285E-1,2.0123842E0,-5.5796333E-2,-5.564566E-1,8.2534516E-1,-3.856859E-1,1.4149851E0,2.0878894E0,-4.3020412E-1,-5.589624E-1,6.0361445E-2,1.6492717E-1,-3.1696495E-2,-4.897268E-2,1.8811418E-2,1.8749492E0,-3.6444552E-2,2.092945E0,1.8883856E-2,-5.1066745E-2,2.1401336E-2,-5.60632E-2,-2.2106153E-1,5.6156423E-2,2.0319839E-1,2.0958233E-1,6.265113E-2,-4.756941E-2,6.435787E-2],"categories":[],"categories_nodes":[],"categories_segments":[],"categories_sizes":[],"default_left":[0,0,0,0,0,0,0,0,0,0,0,0,0,0,0,0,0,0,0,0,0,0,0,0,0,0,0,0,0,0,0,0,0],"id":17,"left_children":[1,3,5,7,9,11,-1,13,15,17,19,21,23,25,-1,-1,-1,-1,-1,27,-1,29,-1,-1,-1,-1,31,-1,-1,-1,-1,-1,-1],"loss_changes":[1.0884955E3,2.213797E1,7.858145E2,5.8807983E0,1.4586924E1,6.8081665E1,0E0,3.7521973E0,3.5806766E0,6.1655223E-1,8.587179E0,2.9987793E0,7.184701E-1,5.376587E-1,0E0,0E0,0E0,0E0,0E0,4.750824E-1,0E0,1.7480469E-1,0E0,0E0,0E0,0E0,1.9391186E0,0E0,0E0,0E0,0E0,0E0,0E0],"parents":[2147483647,0,0,1,1,2,2,3,3,4,4,5,5,7,7,8,8,9,9,10,10,11,11,12,12,13,13,19,19,21,21,26,26],"right_children":[2,4,6,8,10,12,-1,14,16,18,20,22,24,26,-1,-1,-1,-1,-1,28,-1,30,-1,-1,-1,-1,32,-1,-1,-1,-1,-1,-1],"split_conditions":[1.4040144E5,1.0569882E3,1.9238983E2,1.112707E2,3.0110016E2,1.1179035E6,-5.5796333E-2,4.207167E6,4.0296616E1,9.008112E4,1.6849157E-1,7.618089E7,5.5183955E-2,9.7576215E2,6.0361445E-2,1.6492717E-1,-3.1696495E-2,-4.897268E-2,1.8811418E-2,4.9485366E3,-3.6444552E-2,2.2116482E-1,1.8883856E-2,-5.1066745E-2,2.1401336E-2,-5.60632E-2,1.0371422E0,5.6156423E-2,2.0319839E-1,2.0958233E-1,6.265113E-2,-4.756941E-2,6.435787E-2],"split_indices":[13,6,12,12,7,13,0,4,0,13,5,4,5,6,0,0,0,0,0,8,0,14,0,0,0,0,18,0,0,0,0,0,0],"split_type":[0,0,0,0,0,0,0,0,0,0,0,0,0,0,0,0,0,0,0,0,0,0,0,0,0,0,0,0,0,0,0,0,0],"sum_hessian":[1.7317506E3,1.1924053E3,5.3934534E2,1.1759639E3,1.6441406E1,3.6327896E2,1.760664E2,1.1737148E3,2.2490242E0,7.7845798E0,8.656827E0,3.5252686E2,1.0752098E1,1.171702E3,2.012756E0,1.0487658E0,1.2002585E0,6.7137656E0,1.070814E0,6.8360906E0,1.8207368E0,3.5148907E2,1.0378015E0,9.742551E0,1.009547E0,1.165285E3,6.41702E0,1.2187698E0,5.6173205E0,3.503722E2,1.1168767E0,5.304658E0,1.1123616E0],"tree_param":{"num_deleted":"0","num_feature":"20","num_nodes":"33","size_leaf_vector":"1"}},{"base_weights":[-5.5990386E-4,-5.6137767E-2,1.1871772E0,1.8622351E0,1.4773107E-1,1.9188126E0,8.577966E-2,1.8068782E0,-1.6233405E-1,2.1204944E-1,1.6671221E0,1.1308969E0,-3.8744998E-1,2.0495789E-1,1.1239452E0,-2.7582324E-1,1.3889077E0,1.1667941E0,2.0308605E-1,1.159325E-2,1.6019468E-1,2.0552177E-2,-4.9247824E-2,1.7563987E-1,3.099586E-1,-3.3026612E-1,1.0889817E0,7.846659E-1,1.9304536E-1,7.508757E-2,1.923402E-1,-2.42404E-2,1.1360421E-1,-2.3612082E-4,-4.601718E-2,1.7792937E-1,-1.1861813E-2,-1.3532335E-2,1.2754844E-1],"categories":[],"categories_nodes":[],"categories_segments":[],"categories_sizes":[],"default_left":[0,0,0,0,0,0,0,0,0,0,0,0,0,0,0,0,0,0,0,0,0,0,0,0,0,0,0,0,0,0,0,0,0,0,0,0,0,0,0],"id":18,"left_children":[1,-1,3,5,7,9,11,13,15,-1,17,19,21,-1,23,25,27,29,-1,-1,-1,-1,-1,-1,31,33,35,37,-1,-1,-1,-1,-1,-1,-1,-1,-1,-1,-1],"loss_changes":[1.1527329E3,0E0,3.8919336E2,3.364795E1,1.13278824E2,1.3012695E1,6.0915084E0,3.441887E0,3.312164E1,0E0,2.4872742E1,1.639566E0,6.3760865E-1,0E0,5.274543E0,1.3297396E1,2.6878662E0,1.9125343E1,0E0,0E0,0E0,0E0,0E0,0E0,3.0846095E0,7.163988E0,5.97303E0,3.674387E0,0E0,0E0,0E0,0E0,0E0,0E0,0E0,0E0,0E0,0E0,0E0],"parents":[2147483647,0,0,2,2,3,3,4,4,5,5,6,6,7,7,8,8,10,10,11,11,12,12,14,14,15,15,16,16,17,17,24,24,25,25,26,26,27,27],"right_children":[2,-1,4,6,8,10,12,14,16,-1,18,20,22,-1,24,26,28,30,-1,-1,-1,-1,-1,-1,32,34,36,38,-1,-1,-1,-1,-1,-1,-1,-1,-1,-1,-1],"split_conditions":[6.977309E0,-5.6137767E-2,7.16833E1,2.652897E2,1.5883462E4,1.722349E4,1.7345578E4,1.4227853E4,6.78785E1,2.1204944E-1,5.6171253E1,4.842412E1,6.789209E-1,2.0495789E-1,1.08228836E2,5.2607367E2,8.141325E1,1.679824E4,2.0308605E-1,1.159325E-2,1.6019468E-1,2.0552177E-2,-4.9247824E-2,1.7563987E-1,1.5579097E4,1.6803879E2,2.1964014E2,1.7497049E2,1.9304536E-1,7.508757E-2,1.923402E-1,-2.42404E-2,1.1360421E-1,-2.3612082E-4,-4.601718E-2,1.7792937E-1,-1.1861813E-2,-1.3532335E-2,1.2754844E-1],"split_indices":[19,0,10,0,8,8,8,8,12,0,7,12,5,0,10,16,12,13,0,0,0,0,0,0,13,6,11,6,0,0,0,0,0,0,0,0,0,0,0],"split_type":[0,0,0,0,0,0,0,0,0,0,0,0,0,0,0,0,0,0,0,0,0,0,0,0,0,0,0,0,0,0,0,0,0,0,0,0,0,0,0],"sum_hessian":[1.7285592E3,1.174513E3,5.540463E2,3.3541974E2,2.1862656E2,3.2498917E2,1.043058E1,3.3664047E1,1.8496251E2,1.762964E2,1.4869275E2,2.8177965E0,7.612784E0,2.3360907E1,1.0303142E1,1.7311926E2,1.184325E1,6.4365166E1,8.432758E1,1.2882142E0,1.5295823E0,1.0015242E0,6.61126E0,5.1465716E0,5.15657E0,1.6720728E2,5.911985E0,6.7550693E0,5.088181E0,4.281923E1,2.1545937E1,3.5136933E0,1.6428767E0,4.7734676E1,1.19472595E2,3.4604445E0,2.4515405E0,2.6020613E0,4.153008E0],"tree_param":{"num_deleted":"0","num_feature":"20","num_nodes":"39","size_leaf_vector":"1"}},{"base_weights":[3.233264E-3,5.3644323E-1,-5.5047745E-1,7.1221495E-1,-4.8212674E-1,-3.1838337E-1,-5.5726893E-2,9.0691483E-1,-4.4688508E-1,-5.0387686E-1,5.6536205E-2,2.0401123E-1,-4.865971E-1,3.468754E-1,1.1588829E0,-4.971111E-1,3.8646945E-1,-5.4817814E-1,-1.9640379E-1,-2.8233516E-1,1.1439508E-1,-1.876478E-1,-5.3000223E-2,-3.0499467E-1,5.2552724E-1,1.270815E0,-2.2861546E-1,7.672462E-2,-5.3277206E-1,-2.4729452E-1,1.2253107E0,-2.0463495E-1,-5.5683304E-2,2.984181E-1,-5.13013E-2,-4.3900475E-2,1.9784607E-2,-3.8230833E-2,1.9504566E-2,9.194531E-2,-3.664827E-2,7.940291E-2,-2.0887915E-3,-2.1877725E-2,1.3895208E-1,5.2393176E-2,-3.7549358E-2,-3.1181747E-2,1.0737159E-1,-1.0049201E-2,-5.6162555E-2,1.9575553E-2,-4.2466935E-2,1.695583E-1,1.7579649E-2,-3.943594E-2,2.0153914E-2,-4.036502E-2,7.210436E-2],"categories":[],"categories_nodes":[],"categories_segments":[],"categories_sizes":[],"default_left":[0,0,0,0,0,0,0,0,0,0,0,0,0,0,0,0,0,0,0,0,0,0,0,0,0,0,0,0,0,0,0,0,0,0,0,0,0,0,0,0,0,0,0,0,0,0,0,0,0,0,0,0,0,0,0,0,0,0,0],"id":19,"left_children":[1,3,5,7,9,11,-1,13,15,17,-1,19,21,23,25,27,29,31,33,35,-1,37,-1,39,41,43,45,47,49,51,53,55,-1,57,-1,-1,-1,-1,-1,-1,-1,-1,-1,-1,-1,-1,-1,-1,-1,-1,-1,-1,-1,-1,-1,-1,-1,-1,-1],"loss_changes":[5.1174432E2,1.5843002E2,1.1628723E0,1.7043979E2,3.2591076E0,2.428524E0,0E0,9.067377E1,4.755604E0,1.6415901E0,0E0,3.596497E0,1.6455221E-1,2.364995E1,6.935712E1,2.1541061E0,3.896906E0,2.1813965E-1,2.9309292E0,5.02213E-1,0E0,3.8205737E-1,0E0,3.6511984E0,2.3297203E1,7.30965E1,3.9598546E0,3.013955E0,1.1578045E0,4.511392E-1,1.2207465E0,4.1281766E-1,0E0,2.5314145E0,0E0,0E0,0E0,0E0,0E0,0E0,0E0,0E0,0E0,0E0,0E0,0E0,0E0,0E0,0E0,0E0,0E0,0E0,0E0,0E0,0E0,0E0,0E0,0E0,0E0],"parents":[2147483647,0,0,1,1,2,2,3,3,4,4,5,5,7,7,8,8,9,9,11,11,12,12,13,13,14,14,15,15,16,16,17,17,18,18,19,19,21,21,23,23,24,24,25,25,26,26,27,27,28,28,29,29,30,30,31,31,33,33],"right_children":[2,4,6,8,10,12,-1,14,16,18,-1,20,22,24,26,28,30,32,34,36,-1,38,-1,40,42,44,46,48,50,52,54,56,-1,58,-1,-1,-1,-1,-1,-1,-1,-1,-1,-1,-1,-1,-1,-1,-1,-1,-1,-1,-1,-1,-1,-1,-1,-1,-1],"split_conditions":[1.1551881E1,8.7700086E4,1.2565102E1,7.7313403E2,3.0467178E5,5.7489057E0,-5.5726893E-2,9.503385E0,5.7394875E4,2.4762096E1,5.6536205E-2,4.0323788E2,3.876167E1,7.9354175E2,7.140045E4,1.22865E2,6.5023023E4,3.6493438E4,1.03918086E5,1.040082E0,1.1439508E-1,3.8267933E1,-5.3000223E-2,9.686999E1,4.3845505E2,1.4569495E2,3.6377002E2,2.671544E3,1.3139869E3,7.9473047E2,9.44319E4,6.720688E2,-5.5683304E-2,4.704278E2,-5.13013E-2,-4.3900475E-2,1.9784607E-2,-3.8230833E-2,1.9504566E-2,9.194531E-2,-3.664827E-2,7.940291E-2,-2.0887915E-3,-2.1877725E-2,1.3895208E-1,5.2393176E-2,-3.7549358E-2,-3.1181747E-2,1.0737159E-1,-1.0049201E-2,-5.6162555E-2,1.9575553E-2,-4.2466935E-2,1.695583E-1,1.7579649E-2,-3.943594E-2,2.0153914E-2,-4.036502E-2,7.210436E-2],"split_indices":[0,8,0,6,4,19,0,1,8,12,0,7,10,11,13,16,4,9,8,18,0,10,0,15,7,6,6,13,11,6,4,6,0,15,0,0,0,0,0,0,0,0,0,0,0,0,0,0,0,0,0,0,0,0,0,0,0,0,0],"split_type":[0,0,0,0,0,0,0,0,0,0,0,0,0,0,0,0,0,0,0,0,0,0,0,0,0,0,0,0,0,0,0,0,0,0,0,0,0,0,0,0,0,0,0,0,0,0,0,0,0,0,0,0,0,0,0,0,0,0,0],"sum_hessian":[1.7312921E3,8.8198914E2,8.49303E2,7.52443E2,1.2954617E2,2.5506754E1,8.237962E2,6.444149E2,1.08028046E2,1.27419395E2,2.1267745E0,6.160928E0,1.9345825E1,2.0070111E2,4.4371384E2,1.02267876E2,5.760173E0,1.10688354E2,1.6731041E1,4.5211864E0,1.6397419E0,3.1276405E0,1.6218185E1,4.3020275E1,1.5768083E2,4.1066852E2,3.3045315E1,5.916205E0,9.635167E1,3.6828725E0,2.0773003E0,3.3256395E0,1.0736271E2,6.55064E0,1.0180401E1,3.4736004E0,1.0475857E0,2.0737932E0,1.0538474E0,1.3898556E0,4.163042E1,1.0542373E2,5.2257103E1,3.0248533E1,3.8041998E2,4.9771566E0,2.806816E1,4.7516565E0,1.1645484E0,6.3092813E0,9.004239E1,1.0232797E0,2.659593E0,1.0094099E0,1.0678904E0,2.286636E0,1.0390033E0,2.478401E0,4.072239E0],"tree_param":{"num_deleted":"0","num_feature":"20","num_nodes":"59","size_leaf_vector":"1"}},{"base_weights":[1.3544818E-3,7.7773404E-1,-5.2321976E-1,1.0830361E0,-3.657155E-1,-1.5121168E-1,-5.5998015E-1,2.2751004E-1,1.3571284E0,2.0414189E-1,-5.3156406E-1,-2.8348103E-1,1.1397411E0,-3.496518E-1,-5.610189E-2,-9.5857814E-2,1.1651286E0,1.5500314E0,-5.4699033E-2,-2.1239018E-1,1.0837157E0,-5.4861575E-1,4.964732E-2,-4.8731664E-1,1.6296276E-1,-3.2611594E-2,1.4363947E0,-4.7402915E-2,2.054932E-2,2.2749858E-1,-4.711435E-1,8.664824E-1,2.036488E-1,1.1811969E0,2.0422192E0,-3.1929186E-1,7.90232E-2,3.2730842E-1,1.6876216E0,-5.5724062E-2,1.6323548E-2,-5.346242E-1,2.4137026E-2,-6.327155E-2,7.1476424E-1,1.8416314E-1,2.5137348E-2,1.0509482E-2,1.2612751E-1,2.464199E-2,-5.1074255E-2,1.12546705E-1,-3.2057606E-2,8.932043E-2,1.8871449E-1,-4.189945E-2,2.0777765E-1,-4.331472E-2,2.8182393E-2,8.911662E-2,-4.0256634E-2,1.9935811E-2,1.9531164E-1,-5.525331E-2,1.73352E-2,-4.329832E-2,6.9578245E-2,-2.1299196E-2,7.322454E-2,1.0749072E-1,-3.6874477E-2],"categories":[],"categories_nodes":[],"categories_segments":[],"categories_sizes":[],"default_left":[0,0,0,0,0,0,0,0,0,0,0,0,0,0,0,0,0,0,0,0,0,0,0,0,0,0,0,0,0,0,0,0,0,0,0,0,0,0,0,0,0,0,0,0,0,0,0,0,0,0,0,0,0,0,0,0,0,0,0,0,0,0,0,0,0,0,0,0,0,0,0],"id":20,"left_children":[1,3,5,7,9,11,13,15,17,19,21,23,25,27,-1,29,31,33,-1,35,37,39,-1,41,43,-1,45,-1,-1,47,49,51,-1,53,55,57,-1,59,61,-1,-1,63,65,67,69,-1,-1,-1,-1,-1,-1,-1,-1,-1,-1,-1,-1,-1,-1,-1,-1,-1,-1,-1,-1,-1,-1,-1,-1,-1,-1],"loss_changes":[7.0553156E2,2.4424838E2,1.4053101E1,1.2903094E2,1.4091297E1,1.643227E1,9.338379E-3,4.1053886E1,1.5421313E2,1.2714113E1,2.2861137E0,7.9396133E0,4.367737E0,5.9980214E-1,0E0,1.2403801E1,7.266533E0,6.6460205E1,0E0,2.8204083E0,4.5247154E0,7.876625E-1,0E0,1.4537659E0,3.518709E0,0E0,3.2072172E0,0E0,0E0,6.8404255E0,1.4677534E0,8.841791E0,0E0,4.288806E1,1.4973206E1,1.6526568E0,0E0,2.8999863E0,1.9575386E0,0E0,0E0,7.87446E-1,2.142984E0,2.61576E0,3.5852146E0,0E0,0E0,0E0,0E0,0E0,0E0,0E0,0E0,0E0,0E0,0E0,0E0,0E0,0E0,0E0,0E0,0E0,0E0,0E0,0E0,0E0,0E0,0E0,0E0,0E0,0E0],"parents":[2147483647,0,0,1,1,2,2,3,3,4,4,5,5,6,6,7,7,8,8,9,9,10,10,11,11,12,12,13,13,15,15,16,16,17,17,19,19,20,20,21,21,23,23,24,24,26,26,29,29,30,30,31,31,33,33,34,34,35,35,37,37,38,38,41,41,42,42,43,43,44,44],"right_children":[2,4,6,8,10,12,14,16,18,20,22,24,26,28,-1,30,32,34,-1,36,38,40,-1,42,44,-1,46,-1,-1,48,50,52,-1,54,56,58,-1,60,62,-1,-1,64,66,68,70,-1,-1,-1,-1,-1,-1,-1,-1,-1,-1,-1,-1,-1,-1,-1,-1,-1,-1,-1,-1,-1,-1,-1,-1,-1,-1],"split_conditions":[6.6301217E0,5.840659E4,8.493383E0,1.0664628E3,6.841643E4,5.236863E2,8.720481E0,4.570121E4,1.9245825E5,5.591238E2,4.8731388E1,3.9100133E4,3.3651178E2,1.0599328E0,-5.610189E-2,6.4527863E-1,7.910505E4,4.943384E4,-5.4699033E-2,5.6927795E2,3.466644E2,1.5875829E3,4.964732E-2,1.4172081E3,4.2181567E2,-3.2611594E-2,6.032144E0,-4.7402915E-2,2.054932E-2,5.280608E1,6.0756615E1,4.3000448E-1,2.036488E-1,5.1545435E2,6.2572437E2,3.5980479E3,7.90232E-2,2.754918E2,5.810811E0,-5.5724062E-2,1.6323548E-2,4.842412E1,1.8220325E1,2.5432505E1,2.4726965E1,1.8416314E-1,2.5137348E-2,1.0509482E-2,1.2612751E-1,2.464199E-2,-5.1074255E-2,1.12546705E-1,-3.2057606E-2,8.932043E-2,1.8871449E-1,-4.189945E-2,2.0777765E-1,-4.331472E-2,2.8182393E-2,8.911662E-2,-4.0256634E-2,1.9935811E-2,1.9531164E-1,-5.525331E-2,1.73352E-2,-4.329832E-2,6.9578245E-2,-2.1299196E-2,7.322454E-2,1.0749072E-1,-3.6874477E-2],"split_indices":[0,8,0,11,8,7,0,13,13,6,12,13,6,18,0,5,13,13,0,7,7,11,0,11,7,0,19,0,0,12,16,14,0,7,15,15,0,7,19,0,0,12,12,17,17,0,0,0,0,0,0,0,0,0,0,0,0,0,0,0,0,0,0,0,0,0,0,0,0,0,0],"split_type":[0,0,0,0,0,0,0,0,0,0,0,0,0,0,0,0,0,0,0,0,0,0,0,0,0,0,0,0,0,0,0,0,0,0,0,0,0,0,0,0,0,0,0,0,0,0,0,0,0,0,0,0,0,0,0,0,0,0,0,0,0,0,0,0,0,0,0,0,0,0,0],"sum_hessian":[1.7303497E3,6.975219E2,1.0328279E3,5.505716E2,1.4695027E2,9.33417E1,9.394862E2,1.3403555E2,4.1653604E2,3.3074623E1,1.1387565E2,8.5374725E1,7.9669757E0,6.2760463E0,9.3321014E2,1.0033097E2,3.370459E1,3.7838815E2,3.8147896E1,2.2960127E1,1.0114496E1,1.1247639E2,1.3992591E0,5.8550438E1,2.6824286E1,1.3242304E0,6.642745E0,5.2466736E0,1.029373E0,5.4105766E1,4.6225204E1,2.6586758E1,7.1178336E0,2.1824225E2,1.6014592E2,2.1363815E1,1.5963116E0,5.174852E0,4.939645E0,1.1134453E2,1.1318628E0,5.355179E1,4.9986506E0,1.9652323E1,7.1719637E0,4.5371156E0,2.1056297E0,4.9362667E1,4.7430997E0,2.1443925E0,4.408081E1,2.1867693E1,4.7190657E0,1.5661581E2,6.1626434E1,2.127111E0,1.580188E2,1.819667E1,3.1671433E0,2.7947836E0,2.3800683E0,1.0128549E0,3.9267898E0,5.2444717E1,1.1070702E0,3.1857657E0,1.8128848E0,1.7155777E1,2.4965463E0,5.3887568E0,1.783207E0],"tree_param":{"num_deleted":"0","num_feature":"20","num_nodes":"71","size_leaf_vector":"1"}},{"base_weights":[-4.0727905E-3,-5.2982336E-1,2.0733395E0,-5.5711687E-1,2.0076469E-1,2.0888197E0,-3.7950847E-2,-5.5998945E-1,1.1338973E-1,1.57729E-2,2.09475E-1,-5.607092E-1,8.7534945E-4,-5.6143116E-2,-9.172488E-2,-3.1610392E-2,2.016832E-2],"categories":[],"categories_nodes":[],"categories_segments":[],"categories_sizes":[],"default_left":[0,0,0,0,0,0,0,0,0,0,0,0,0,0,0,0,0],"id":21,"left_children":[1,3,5,7,-1,9,-1,11,-1,-1,-1,13,-1,-1,15,-1,-1],"loss_changes":[1.894124E3,9.696704E1,1.4092163E1,7.2899475E0,0E0,3.6573486E0,0E0,5.6503296E-1,0E0,0E0,0E0,4.112854E-1,0E0,0E0,2.807439E-1,0E0,0E0],"parents":[2147483647,0,0,1,1,2,2,3,3,5,5,7,7,11,11,14,14],"right_children":[2,4,6,8,-1,10,-1,12,-1,-1,-1,14,-1,-1,16,-1,-1],"split_conditions":[1.5059964E2,1.1179035E6,5.998038E3,6.854799E7,2.0076469E-1,2.872355E2,-3.7950847E-2,1.0022727E3,1.1338973E-1,1.57729E-2,2.09475E-1,5.114317E7,8.7534945E-4,-5.6143116E-2,2.3685922E2,-3.1610392E-2,2.016832E-2],"split_indices":[12,13,8,4,0,10,0,10,0,0,0,4,0,0,10,0,0],"split_type":[0,0,0,0,0,0,0,0,0,0,0,0,0,0,0,0,0],"sum_hessian":[1.7322214E3,1.382966E3,3.4925546E2,1.369021E3,1.3944991E1,3.4721255E2,2.042893E0,1.3673671E3,1.65397E0,1.1475046E0,3.4606506E2,1.3656531E3,1.7140081E0,1.363357E3,2.2960024E0,1.2572151E0,1.0387872E0],"tree_param":{"num_deleted":"0","num_feature":"20","num_nodes":"17","size_leaf_vector":"1"}},{"base_weights":[-1.9998457E-3,1.4380294E0,-5.396611E-1,-3.341323E-1,1.7067374E0,-5.481152E-1,9.5385087E-1,-4.913775E-1,2.5583452E-1,1.7928649E0,-5.2935403E-2,-2.4684994E-1,-5.613744E-2,1.619743E0,-3.9346352E-2,-5.288043E-1,4.440488E-2,-4.0688333E-1,1.5227679E0,2.623302E-1,1.9104694E0,-5.399806E-2,1.7607067E-2,1.8295616E-2,1.938433E-1,-5.4909136E-2,-1.4657585E-1,-3.8380384E-2,6.5391846E-2,-5.0062515E-2,1.9743582E-2,1.9230146E-2,1.8215284E-1,2.7877934E-2,1.5958272E-1,1.9478118E0,-4.766224E-2,-4.617166E-1,4.7549322E-1,1.9721042E-2,-3.5524387E-2,-5.083124E-2,3.1317793E-2,1.9693552E-1,-4.3078747E-2,-5.1640153E-2,-1.5209945E-2,-4.6514418E-2,8.878268E-2],"categories":[],"categories_nodes":[],"categories_segments":[],"categories_sizes":[],"default_left":[0,0,0,0,0,0,0,0,0,0,0,0,0,0,0,0,0,0,0,0,0,0,0,0,0,0,0,0,0,0,0,0,0,0,0,0,0,0,0,0,0,0,0,0,0,0,0,0,0],"id":22,"left_children":[1,3,5,7,9,11,13,15,17,19,-1,21,-1,23,-1,25,27,29,31,33,35,-1,37,-1,-1,-1,39,-1,-1,-1,-1,-1,-1,41,-1,43,-1,45,47,-1,-1,-1,-1,-1,-1,-1,-1,-1,-1],"loss_changes":[1.3423004E3,2.2501251E2,1.6461609E1,5.96022E0,7.980127E1,4.878113E0,7.339404E0,1.0261059E0,1.2284325E1,7.050342E1,0E0,4.2520757E0,0E0,2.0240173E0,0E0,2.8251457E-1,1.3438272E0,6.6028047E-1,1.6301041E0,9.118186E0,3.3568604E1,0E0,6.7467046E0,0E0,0E0,0E0,3.3717328E-1,0E0,0E0,0E0,0E0,0E0,0E0,4.1277976E0,0E0,1.9333008E1,0E0,1.7605495E-1,6.5033517E0,0E0,0E0,0E0,0E0,0E0,0E0,0E0,0E0,0E0,0E0],"parents":[2147483647,0,0,1,1,2,2,3,3,4,4,5,5,6,6,7,7,8,8,9,9,11,11,13,13,15,15,16,16,17,17,18,18,19,19,20,20,22,22,26,26,33,33,35,35,37,37,38,38],"right_children":[2,4,6,8,10,12,14,16,18,20,-1,22,-1,24,-1,26,28,30,32,34,36,-1,38,-1,-1,-1,40,-1,-1,-1,-1,-1,-1,42,-1,44,-1,46,48,-1,-1,-1,-1,-1,-1,-1,-1,-1,-1],"split_conditions":[5.7586666E1,1.5556444E4,2.421034E2,1.4518229E4,2.6732918E4,7.442174E1,7.284395E1,1.7972043E4,1.0582787E2,1.0647393E2,-5.2935403E-2,1.6055054E4,-5.613744E-2,3.8113655E1,-3.9346352E-2,1.5127473E0,1.7277634E1,2.0750111E6,1.11849724E2,2.421034E2,8.141325E1,-5.399806E-2,2.7764078E2,1.8295616E-2,1.938433E-1,-5.4909136E-2,1.6806978E0,-3.8380384E-2,6.5391846E-2,-5.0062515E-2,1.9743582E-2,1.9230146E-2,1.8215284E-1,8.6238074E-1,1.5958272E-1,2.4061584E4,-4.766224E-2,1.3556093E2,3.0516787E1,1.9721042E-2,-3.5524387E-2,-5.083124E-2,3.1317793E-2,1.9693552E-1,-4.3078747E-2,-5.1640153E-2,-1.5209945E-2,-4.6514418E-2,8.878268E-2],"split_indices":[7,8,0,8,8,7,7,9,10,6,0,8,0,10,0,5,19,4,0,0,12,0,11,0,0,0,5,0,0,0,0,0,0,5,0,13,0,6,12,0,0,0,0,0,0,0,0,0,0],"split_type":[0,0,0,0,0,0,0,0,0,0,0,0,0,0,0,0,0,0,0,0,0,0,0,0,0,0,0,0,0,0,0,0,0,0,0,0,0,0,0,0,0,0,0,0,0,0,0,0,0],"sum_hessian":[1.7316807E3,4.70325E2,1.2613557E3,6.189257E1,4.0843243E2,1.2548854E3,6.470293E0,4.8999683E1,1.2892885E1,3.9347516E2,1.4957274E1,5.3728367E1,1.201157E3,4.194845E0,2.2754474E0,4.58125E1,3.1871843E0,8.9106655E0,3.9822197E0,2.8307304E1,3.6516785E2,2.4988571E1,2.8739794E1,1.0472946E0,3.1475508E0,4.308897E1,2.7235293E0,2.0895202E0,1.097664E0,7.862608E0,1.0480574E0,1.03165E0,2.9505699E0,2.4942822E1,3.364482E0,3.5972452E2,5.4433255E0,1.4037117E1,1.4702678E1,1.0494462E0,1.6740831E0,8.39106E0,1.6551762E1,3.566662E2,3.058315E0,1.1362405E1,2.674712E0,4.441778E0,1.02609E1],"tree_param":{"num_deleted":"0","num_feature":"20","num_nodes":"49","size_leaf_vector":"1"}},{"base_weights":[6.5472914E-4,-3.881359E-1,1.2274499E0,1.7503037E-1,-5.4480046E-1,1.6144531E0,-3.328941E-1,9.562912E-1,-5.264752E-1,-2.4792494E-1,-5.560562E-1,1.720761E0,4.3574983E-1,3.594625E-1,-5.2399623E-1,1.2499497E0,-9.6142545E-2,-2.3931307E-1,-5.5836517E-2,1.7088321E-1,-5.3860825E-2,6.6974446E-2,-5.5803414E-2,1.7721521E0,4.8278692E-1,8.2982403E-1,-1.9074321E-1,-1.792747E-1,1.0966392E0,1.1475004E-2,-5.3853405E-1,-4.628971E-2,1.3333173E0,-2.0373018E-1,1.04566835E-1,-5.1375616E-2,2.1518345E-1,1.1142274E0,-1.00731194E-1,6.409077E-2,-3.7353706E-2,1.8188231E0,4.2827252E-1,-1.1347964E-1,1.0688797E0,-2.3976147E-1,1.1206666E0,-4.824587E-2,1.4463931E-1,-4.840245E-2,1.8282051E-1,-3.0437667E-2,1.3682901E0,-5.534267E-2,-9.966871E-2,9.8623335E-2,1.7488648E-1,3.2828223E-2,-3.671464E-2,-2.7471531E-2,1.1027037E-1,1.9237697E-2,1.3817567E-1,4.7284245E-2,-3.2581504E-2,1.8463077E-1,5.1490795E-3,7.934912E-2,-2.5114745E-2,5.808875E-2,-4.744869E-2,1.5141432E-1,-3.5014864E-2,-4.1688956E-2,1.7294511E-2,3.135168E-2,1.5512547E-1,1.03305176E-1,-4.4162538E-2,-2.3653349E-2,9.391584E-2,1.7676382E-1,1.9432245E-3,1.915006E-2,-3.194834E-2],"categories":[],"categories_nodes":[],"categories_segments":[],"categories_sizes":[],"default_left":[0,0,0,0,0,0,0,0,0,0,0,0,0,0,0,0,0,0,0,0,0,0,0,0,0,0,0,0,0,0,0,0,0,0,0,0,0,0,0,0,0,0,0,0,0,0,0,0,0,0,0,0,0,0,0,0,0,0,0,0,0,0,0,0,0,0,0,0,0,0,0,0,0,0,0,0,0,0,0,0,0,0,0,0,0],"id":23,"left_children":[1,3,5,7,9,11,13,15,17,19,21,23,25,27,29,31,33,35,-1,37,-1,39,-1,41,43,45,47,49,51,-1,53,-1,55,57,-1,-1,59,61,63,-1,-1,65,67,69,71,73,75,-1,77,-1,79,-1,81,-1,83,-1,-1,-1,-1,-1,-1,-1,-1,-1,-1,-1,-1,-1,-1,-1,-1,-1,-1,-1,-1,-1,-1,-1,-1,-1,-1,-1,-1,-1,-1],"loss_changes":[8.2627625E2,1.16156555E2,2.522807E2,1.5782701E2,3.302002E0,4.1128845E1,1.1260044E1,4.2202156E1,1.2573509E0,4.889599E0,1.258606E0,1.8626587E1,7.315021E0,7.6207857E0,6.7453575E-1,1.5829193E1,3.9761841E0,2.2225547E0,0E0,4.4437084E0,0E0,1.2580445E0,0E0,1.7638489E1,4.8670053E0,5.8624887E0,1.2444415E0,1.37517E0,3.47402E0,0E0,3.6766624E-1,0E0,1.2963989E1,2.627203E0,0E0,0E0,3.3811414E0,6.8667173E-1,1.9670085E0,0E0,0E0,1.3674866E1,2.9693773E0,2.189629E0,4.9178796E0,4.133421E-1,4.488386E0,0E0,3.7659383E0,0E0,2.1424885E0,0E0,3.6883564E0,0E0,2.7513844E-1,0E0,0E0,0E0,0E0,0E0,0E0,0E0,0E0,0E0,0E0,0E0,0E0,0E0,0E0,0E0,0E0,0E0,0E0,0E0,0E0,0E0,0E0,0E0,0E0,0E0,0E0,0E0,0E0,0E0,0E0],"parents":[2147483647,0,0,1,1,2,2,3,3,4,4,5,5,6,6,7,7,8,8,9,9,10,10,11,11,12,12,13,13,14,14,15,15,16,16,17,17,19,19,21,21,23,23,24,24,25,25,26,26,27,27,28,28,30,30,32,32,33,33,36,36,37,37,38,38,41,41,42,42,43,43,44,44,45,45,46,46,48,48,50,50,52,52,54,54],"right_children":[2,4,6,8,10,12,14,16,18,20,22,24,26,28,30,32,34,36,-1,38,-1,40,-1,42,44,46,48,50,52,-1,54,-1,56,58,-1,-1,60,62,64,-1,-1,66,68,70,72,74,76,-1,78,-1,80,-1,82,-1,84,-1,-1,-1,-1,-1,-1,-1,-1,-1,-1,-1,-1,-1,-1,-1,-1,-1,-1,-1,-1,-1,-1,-1,-1,-1,-1,-1,-1,-1,-1],"split_conditions":[6.601856E4,2.1600142E1,1.9100557E4,1.9589166E4,2.4762096E1,1.3195414E3,2.3024162E4,1.2115071E3,2.339595E4,7.4364404E2,9.765021E1,2.8287138E1,6.6383234E2,1.016225E1,3.6016056E1,8.68003E-1,1.6869032E1,2.2235975E4,-5.5836517E-2,5.7103357E0,-5.3860825E-2,2.3597895E1,-5.5803414E-2,4.3276437E2,2.4975297E4,4.8562775E2,1.7609018E4,1.4358344E3,1.0521748E3,1.1475004E-2,1.8594694E1,-4.628971E-2,1.0349985E1,4.6121448E2,1.04566835E-1,-5.1375616E-2,9.984809E-1,5.5344553E0,3.9092545E1,6.409077E-2,-3.7353706E-2,5.860612E0,4.7119562E2,3.253879E0,9.950618E2,5.23743E-1,8.9544984E4,-4.824587E-2,9.327832E3,-4.840245E-2,4.2720883E2,-3.0437667E-2,1.6678123E5,-5.534267E-2,2.951874E3,9.8623335E-2,1.7488648E-1,3.2828223E-2,-3.671464E-2,-2.7471531E-2,1.1027037E-1,1.9237697E-2,1.3817567E-1,4.7284245E-2,-3.2581504E-2,1.8463077E-1,5.1490795E-3,7.934912E-2,-2.5114745E-2,5.808875E-2,-4.744869E-2,1.5141432E-1,-3.5014864E-2,-4.1688956E-2,1.7294511E-2,3.135168E-2,1.5512547E-1,1.03305176E-1,-4.4162538E-2,-2.3653349E-2,9.391584E-2,1.7676382E-1,1.9432245E-3,1.915006E-2,-3.194834E-2],"split_indices":[8,12,13,13,12,11,13,11,13,15,9,12,6,0,10,18,0,13,0,19,0,17,0,7,3,13,3,15,15,0,0,0,0,6,0,0,18,19,10,0,0,5,7,0,11,14,8,0,13,0,6,0,3,0,16,0,0,0,0,0,0,0,0,0,0,0,0,0,0,0,0,0,0,0,0,0,0,0,0,0,0,0,0,0,0],"split_type":[0,0,0,0,0,0,0,0,0,0,0,0,0,0,0,0,0,0,0,0,0,0,0,0,0,0,0,0,0,0,0,0,0,0,0,0,0,0,0,0,0,0,0,0,0,0,0,0,0,0,0,0,0,0,0,0,0,0,0,0,0,0,0,0,0,0,0,0,0,0,0,0,0,0,0,0,0,0,0,0,0,0,0,0,0],"sum_hessian":[1.7303582E3,1.3144667E3,4.1589148E2,2.8605597E2,1.0284106E3,3.3321213E2,8.2679375E1,1.3516295E2,1.5089304E2,3.8408077E1,9.9000256E2,3.0522394E2,2.7988174E1,1.7693916E1,6.498546E1,1.05529564E2,2.963338E1,1.5932132E1,1.3496089E2,1.5904895E1,2.2503181E1,3.0290515E0,9.869735E2,2.9264413E2,1.2579827E1,1.6981796E1,1.1006377E1,1.0660158E1,7.0337577E0,1.2927527E0,6.3692703E1,4.6866455E0,1.0084292E2,2.783243E1,1.80095E0,9.852447E0,6.0796847E0,2.8621433E0,1.3042751E1,1.1177896E0,1.9112618E0,2.8248056E2,1.0163573E1,6.6355114E0,5.944316E0,3.668045E0,1.3313752E1,5.6518607E0,5.3545165E0,5.605595E0,5.0545635E0,1.1227583E0,5.9109993E0,6.1349792E1,2.3429093E0,5.678602E1,4.40569E1,6.303169E0,2.152926E1,4.3622518E0,1.7174333E0,1.0304643E0,1.8316789E0,3.3655903E0,9.677161E0,2.7811084E2,4.369706E0,6.501065E0,3.662509E0,2.061437E0,4.5740747E0,4.4735694E0,1.4707468E0,2.559435E0,1.1086102E0,5.23281E0,8.080942E0,1.82574E0,3.5287766E0,3.6937928E0,1.3607706E0,4.321183E0,1.5898165E0,1.0632818E0,1.2796276E0],"tree_param":{"num_deleted":"0","num_feature":"20","num_nodes":"85","size_leaf_vector":"1"}},{"base_weights":[7.3225293E-3,5.0840336E-1,-5.009813E-1,3.3316267E-1,1.2616664E0,-5.3341204E-1,1.1730015E0,-1.4350225E-2,6.557746E-1,1.4131184E0,-2.7982515E-1,-5.3686583E-1,8.6291485E-2,3.796483E-1,1.5654461E0,1.9539852E-1,-4.5762742E-1,2.6408267E-1,1.0569104E0,1.0737453E0,1.7682332E0,-4.6053547E-1,8.700169E-2,-7.1749096E-3,-5.4375505E-1,1.17725305E-1,-2.4834637E-1,4.8702095E-2,1.6663776E-1,1.1340281E0,7.082061E-2,1.0549201E-1,-4.930215E-1,1.1413889E-1,1.2370727E0,7.494343E-1,1.4210528E0,6.897031E-1,1.5855007E0,1.78573E0,4.8715994E-2,-5.272764E-2,1.9820975E-2,-5.0622355E-2,1.6968891E-1,1.8935578E-1,-5.4723835E-1,1.9029243E-2,-4.2753797E-2,1.4085476E-1,5.44872E-2,1.4345807E-1,-1.4794912E-3,6.041644E-2,-5.108405E-2,-8.791396E-4,1.09591305E-1,1.7649537E-1,7.478752E-2,1.11649886E-1,3.433004E-2,9.443982E-2,1.6779046E-1,1.3537632E-1,3.0816708E-2,1.6439293E-1,8.585209E-3,1.8080147E-1,6.3538596E-2,1.0482629E-1,-4.059462E-2,2.1444803E-2,-5.4961093E-2],"categories":[],"categories_nodes":[],"categories_segments":[],"categories_sizes":[],"default_left":[0,0,0,0,0,0,0,0,0,0,0,0,0,0,0,0,0,0,0,0,0,0,0,0,0,0,0,0,0,0,0,0,0,0,0,0,0,0,0,0,0,0,0,0,0,0,0,0,0,0,0,0,0,0,0,0,0,0,0,0,0,0,0,0,0,0,0,0,0,0,0,0,0],"id":24,"left_children":[1,3,5,7,9,11,13,15,17,19,21,23,-1,25,27,29,31,33,35,37,39,41,-1,43,45,-1,47,-1,-1,49,51,-1,53,55,57,59,61,63,65,67,-1,-1,-1,-1,-1,69,71,-1,-1,-1,-1,-1,-1,-1,-1,-1,-1,-1,-1,-1,-1,-1,-1,-1,-1,-1,-1,-1,-1,-1,-1,-1,-1],"loss_changes":[4.34917E2,1.1308592E2,4.664476E1,7.8369995E1,3.819995E1,4.476959E0,4.5188885E0,3.1466105E1,5.667479E1,1.5890747E1,3.5842216E0,3.0278625E0,0E0,3.6760745E0,3.495636E-1,2.6787918E1,6.3389606E0,2.6810253E1,1.894867E1,1.4240913E1,7.12204E-1,7.1537066E-1,0E0,1.0792083E1,2.1979675E0,0E0,4.4333863E-1,0E0,0E0,3.576168E0,2.3830605E1,0E0,2.3983803E0,1.946094E1,5.023796E0,1.4380032E1,8.297684E0,1.1324572E1,2.7223663E0,6.266632E-1,0E0,0E0,0E0,0E0,0E0,2.7884476E0,1.593399E0,0E0,0E0,0E0,0E0,0E0,0E0,0E0,0E0,0E0,0E0,0E0,0E0,0E0,0E0,0E0,0E0,0E0,0E0,0E0,0E0,0E0,0E0,0E0,0E0,0E0,0E0],"parents":[2147483647,0,0,1,1,2,2,3,3,4,4,5,5,6,6,7,7,8,8,9,9,10,10,11,11,13,13,14,14,15,15,16,16,17,17,18,18,19,19,20,20,21,21,23,23,24,24,26,26,29,29,30,30,32,32,33,33,34,34,35,35,36,36,37,37,38,38,39,39,45,45,46,46],"right_children":[2,4,6,8,10,12,14,16,18,20,22,24,-1,26,28,30,32,34,36,38,40,42,-1,44,46,-1,48,-1,-1,50,52,-1,54,56,58,60,62,64,66,68,-1,-1,-1,-1,-1,70,72,-1,-1,-1,-1,-1,-1,-1,-1,-1,-1,-1,-1,-1,-1,-1,-1,-1,-1,-1,-1,-1,-1,-1,-1,-1,-1],"split_conditions":[3.3954834E1,1.298537E0,6.841643E4,5.2342867E4,1.9420792E1,2.194228E0,8.252686E4,4.2549707E4,1.3541492E4,1.6176295E4,1.2766826E5,4.2810818E1,8.6291485E-2,6.848693E4,3.8165012E1,4.9485366E3,1.7497049E2,6.1166016E2,9.130738E4,1.0253728E3,6.2908023E4,4.4231677E2,8.700169E-2,1.7951868E2,4.8317474E2,1.17725305E-1,3.4506427E2,4.8702095E-2,1.6663776E-1,6.1062593E0,9.379126E-2,1.0549201E-1,5.689073E2,4.353811E2,2.1578218E3,1.0398643E3,2.095481E4,4.3704683E3,1.7170289E5,6.733799E0,4.8715994E-2,-5.272764E-2,1.9820975E-2,-5.0622355E-2,1.6968891E-1,4.267201E1,9.765021E1,1.9029243E-2,-4.2753797E-2,1.4085476E-1,5.44872E-2,1.4345807E-1,-1.4794912E-3,6.041644E-2,-5.108405E-2,-8.791396E-4,1.09591305E-1,1.7649537E-1,7.478752E-2,1.11649886E-1,3.433004E-2,9.443982E-2,1.6779046E-1,1.3537632E-1,3.0816708E-2,1.6439293E-1,8.585209E-3,1.8080147E-1,6.3538596E-2,1.0482629E-1,-4.059462E-2,2.1444803E-2,-5.4961093E-2],"split_indices":[12,5,8,8,0,5,8,13,13,13,9,6,0,9,10,8,6,6,8,11,13,6,0,7,4,0,6,0,0,19,14,0,11,7,3,11,13,13,8,19,0,0,0,0,0,12,9,0,0,0,0,0,0,0,0,0,0,0,0,0,0,0,0,0,0,0,0,0,0,0,0,0,0],"split_type":[0,0,0,0,0,0,0,0,0,0,0,0,0,0,0,0,0,0,0,0,0,0,0,0,0,0,0,0,0,0,0,0,0,0,0,0,0,0,0,0,0,0,0,0,0,0,0,0,0,0,0,0,0,0,0,0,0,0,0,0,0,0,0,0,0,0,0,0,0,0,0,0,0],"sum_hessian":[1.7055571E3,8.588808E2,8.466763E2,6.9795044E2,1.6093034E2,8.312534E2,1.5422848E1,3.3646777E2,3.6148267E2,1.4660924E2,1.4321111E1,8.298164E2,1.437042E0,5.755371E0,9.667477E0,2.2877554E2,1.0769222E2,1.8373332E2,1.7774934E2,7.702363E1,6.95856E1,1.28941345E1,1.4269757E0,1.0680329E1,8.1913605E2,2.1500318E0,3.6053393E0,1.3258967E0,8.341579E0,2.5856602E1,2.0291895E2,1.8037767E0,1.0588845E2,1.6016779E2,2.3565542E1,9.803133E1,7.9718025E1,4.534363E1,3.1679996E1,6.825939E1,1.3262144E0,1.1889156E1,1.0049783E0,8.804727E0,1.8756025E0,3.6212938E0,8.155148E2,1.0277021E0,2.5776372E0,1.6689344E1,9.167256E0,1.1055826E1,1.9186311E2,1.1663427E0,1.0472211E2,1.4322525E2,1.694253E1,1.0080292E1,1.348525E1,5.057367E1,4.745766E1,2.9552505E1,5.0165516E1,1.5615974E1,2.9727655E1,3.0399378E1,1.2806184E0,6.6401344E1,1.8580502E0,1.1709474E0,2.4503462E0,2.2547545E0,8.1326E2],"tree_param":{"num_deleted":"0","num_feature":"20","num_nodes":"73","size_leaf_vector":"1"}},{"base_weights":[-5.425203E-3,-5.366897E-1,1.0182089E0,-5.545988E-1,2.9210323E-1,1.6446503E0,-5.532378E-2,-5.563568E-2,3.237095E-2,-3.4478164E-1,1.3262823E0,1.6976541E0,-4.207024E-1,1.7811699E-1,-5.1687237E-2,1.8867305E-1,-3.8692627E-2,1.7201706E0,-4.4895925E-2,-5.043434E-2,2.1699203E-2,-3.9227825E-2,9.387179E-2,1.7250639E0,3.5704177E-2,1.7284593E-1,1.9146627E-2],"categories":[],"categories_nodes":[],"categories_segments":[],"categories_sizes":[],"default_left":[0,0,0,0,0,0,0,0,0,0,0,0,0,0,0,0,0,0,0,0,0,0,0,0,0,0,0],"id":25,"left_children":[1,3,5,7,9,11,-1,-1,-1,13,15,17,19,21,-1,-1,-1,23,-1,-1,-1,-1,-1,25,-1,-1,-1],"loss_changes":[9.281682E2,1.6839539E1,5.749754E2,1.8788452E0,1.6542217E1,4.638501E1,0E0,0E0,0E0,1.5234882E0,9.864813E0,2.0442139E1,7.089554E-1,2.3997486E0,0E0,0E0,0E0,2.0717773E0,0E0,0E0,0E0,0E0,0E0,1.7583008E0,0E0,0E0,0E0],"parents":[2147483647,0,0,1,1,2,2,3,3,4,4,5,5,9,9,10,10,11,11,12,12,13,13,17,17,23,23],"right_children":[2,4,6,8,10,12,-1,-1,-1,14,16,18,20,22,-1,-1,-1,24,-1,-1,-1,-1,-1,26,-1,-1,-1],"split_conditions":[1.1135426E5,9.623487E2,1.9238983E2,4.207167E6,6.732453E5,1.1179035E6,-5.532378E-2,-5.563568E-2,3.237095E-2,3.1400986E2,7.340179E3,2.337493E-1,3.3749954E2,2.828129E2,-5.1687237E-2,1.8867305E-1,-3.8692627E-2,6.854799E7,-4.4895925E-2,-5.043434E-2,2.1699203E-2,-3.9227825E-2,9.387179E-2,2.5831506E4,3.5704177E-2,1.7284593E-1,1.9146627E-2],"split_indices":[13,6,12,4,4,13,0,0,0,3,2,14,7,7,0,0,0,4,0,0,0,0,0,8,0,0,0],"split_type":[0,0,0,0,0,0,0,0,0,0,0,0,0,0,0,0,0,0,0,0,0,0,0,0,0,0,0],"sum_hessian":[1.7047502E3,1.1225989E3,5.8215137E2,1.0991779E3,2.3420963E1,4.1619345E2,1.6595795E2,1.097348E3,1.8298372E0,1.4907189E1,8.513774E0,4.0595337E2,1.0240084E1,3.6825924E0,1.1224597E1,6.338841E0,2.1749327E0,4.0193597E2,4.017377E0,9.237582E0,1.0025012E0,2.3811533E0,1.3014393E0,4.0023373E2,1.7022414E0,3.992228E2,1.0109227E0],"tree_param":{"num_deleted":"0","num_feature":"20","num_nodes":"27","size_leaf_vector":"1"}},{"base_weights":[-1.0007287E-3,-5.570944E-2,1.0364373E0,1.5150847E0,5.5802196E-2,1.5930278E0,2.7558264E-1,1.4637865E0,-2.2882906E-1,1.755858E-1,1.4072582E0,-7.0380054E-2,1.6488041E-1,1.6680125E0,8.651265E-1,-3.317262E-1,1.1488737E0,9.28804E-1,1.6508169E0,7.6040983E-1,-3.0422735E-1,1.7031641E0,5.4341566E-2,1.3797908E-1,2.9310527E-1,5.005685E-1,-4.2175084E-1,1.4130469E-1,-5.9239518E-2,4.691876E-2,1.6654311E-1,1.3064392E-1,1.708694E-1,1.1424017E-1,-2.9706595E-2,-4.0806644E-2,6.7582116E-2,1.7420289E-1,5.4453254E-2,-2.3761397E-2,1.0406826E-1,1.12289906E-1,-2.4099654E-2,8.0623694E-2,-4.4847548E-2,-2.8851435E-2,2.0265916E-2],"categories":[],"categories_nodes":[],"categories_segments":[],"categories_sizes":[],"default_left":[0,0,0,0,0,0,0,0,0,0,0,0,0,0,0,0,0,0,0,0,0,0,0,0,0,0,0,0,0,0,0,0,0,0,0,0,0,0,0,0,0,0,0,0,0,0,0],"id":26,"left_children":[1,-1,3,5,7,9,11,13,15,-1,17,19,-1,21,23,25,27,29,31,33,35,37,-1,-1,39,41,43,-1,45,-1,-1,-1,-1,-1,-1,-1,-1,-1,-1,-1,-1,-1,-1,-1,-1,-1,-1],"loss_changes":[9.841542E2,0E0,2.793396E2,3.820581E1,7.9003395E1,8.906677E0,1.1933492E1,2.6093369E0,2.3651964E1,0E0,1.952716E1,4.277736E0,0E0,8.865356E-3,2.6892576E0,1.1714104E1,3.7961693E0,2.0633469E1,1.2908936E-1,2.3027916E0,2.0024953E0,6.2400818E-2,0E0,0E0,2.7256546E0,7.397128E0,4.925846E0,0E0,2.414298E-1,0E0,0E0,0E0,0E0,0E0,0E0,0E0,0E0,0E0,0E0,0E0,0E0,0E0,0E0,0E0,0E0,0E0,0E0],"parents":[2147483647,0,0,2,2,3,3,4,4,5,5,6,6,7,7,8,8,10,10,11,11,13,13,14,14,15,15,16,16,17,17,18,18,19,19,20,20,21,21,24,24,25,25,26,26,28,28],"right_children":[2,-1,4,6,8,10,12,14,16,-1,18,20,-1,22,24,26,28,30,32,34,36,38,-1,-1,40,42,44,-1,46,-1,-1,-1,-1,-1,-1,-1,-1,-1,-1,-1,-1,-1,-1,-1,-1,-1,-1],"split_conditions":[6.977309E0,-5.570944E-2,8.204288E1,2.421034E2,1.5883462E4,1.688247E4,7.094007E1,1.4227853E4,6.78785E1,1.755858E-1,4.980796E1,7.5919896E-1,1.6488041E-1,2.2248077E2,1.08228836E2,1.7865955E2,2.007024E2,1.679824E4,5.7586666E1,2.1980844E4,7.0731186E1,1.5970115E6,5.4341566E-2,1.3797908E-1,1.5579097E4,3.825499E3,2.8287138E1,1.4130469E-1,1.7497049E2,